digraph Tree {
node [shape=box, style="filled", color="black", fontname="helvetica"] ;
edge [fontname="helvetica"] ;
0 [label="left_product_4_count <= 91.5\nsquared_error = 1.234\nsamples = 44531\nvalue = 0.467", fillcolor="#fbeadf"] ;
1 [label="orientation_x <= 25.5\nsquared_error = 1.044\nsamples = 42665\nvalue = 0.435", fillcolor="#fbebdf"] ;
0 -> 1 [labeldistance=2.5, labelangle=45, headlabel="True"] ;
2 [label="left_product_1_count <= 9.5\nsquared_error = 0.79\nsamples = 40469\nvalue = 0.408", fillcolor="#fbebe0"] ;
1 -> 2 ;
3 [label="dist_to_exit <= 15.5\nsquared_error = 1.455\nsamples = 19723\nvalue = 0.525", fillcolor="#fbeade"] ;
2 -> 3 ;
4 [label="right_product_4_count <= 2.0\nsquared_error = 3.268\nsamples = 7821\nvalue = 0.737", fillcolor="#fae8da"] ;
3 -> 4 ;
5 [label="left_product_3_count <= 4.5\nsquared_error = 9.588\nsamples = 1577\nvalue = 1.436", fillcolor="#f9e0cf"] ;
4 -> 5 ;
6 [label="dist_to_cashier <= 0.5\nsquared_error = 14.657\nsamples = 950\nvalue = 2.123", fillcolor="#f7d9c3"] ;
5 -> 6 ;
7 [label="right_product_2_count <= 10.5\nsquared_error = 22.656\nsamples = 232\nvalue = 4.077", fillcolor="#f3c5a3"] ;
6 -> 7 ;
8 [label="tile_down_right <= 1.0\nsquared_error = 0.098\nsamples = 149\nvalue = 0.567", fillcolor="#fbe9dd"] ;
7 -> 8 ;
9 [label="level <= 1.5\nsquared_error = 0.01\nsamples = 75\nvalue = 0.869", fillcolor="#fae6d8"] ;
8 -> 9 ;
10 [label="squared_error = 0.0\nsamples = 1\nvalue = 0.0", fillcolor="#fcefe6"] ;
9 -> 10 ;
11 [label="squared_error = -0.0\nsamples = 74\nvalue = 0.88", fillcolor="#fae6d8"] ;
9 -> 11 ;
12 [label="level <= 32.5\nsquared_error = 0.001\nsamples = 74\nvalue = 0.261", fillcolor="#fbede2"] ;
8 -> 12 ;
13 [label="level <= 31.5\nsquared_error = 0.003\nsamples = 22\nvalue = 0.252", fillcolor="#fbede2"] ;
12 -> 13 ;
14 [label="squared_error = 0.0\nsamples = 21\nvalue = 0.264", fillcolor="#fbede2"] ;
13 -> 14 ;
15 [label="squared_error = 0.0\nsamples = 1\nvalue = 0.0", fillcolor="#fcefe6"] ;
13 -> 15 ;
16 [label="squared_error = 0.0\nsamples = 52\nvalue = 0.264", fillcolor="#fbede2"] ;
12 -> 16 ;
17 [label="level <= 57.5\nsquared_error = 1.324\nsamples = 83\nvalue = 10.378", fillcolor="#e5833b"] ;
7 -> 17 ;
18 [label="level <= 1.5\nsquared_error = 0.016\nsamples = 50\nvalue = 10.496", fillcolor="#e58139"] ;
17 -> 18 ;
19 [label="squared_error = 0.0\nsamples = 1\nvalue = 9.91", fillcolor="#e68743"] ;
18 -> 19 ;
20 [label="level <= 3.5\nsquared_error = 0.009\nsamples = 49\nvalue = 10.508", fillcolor="#e58139"] ;
18 -> 20 ;
21 [label="level <= 2.5\nsquared_error = 0.017\nsamples = 2\nvalue = 10.394", fillcolor="#e5823b"] ;
20 -> 21 ;
22 [label="squared_error = 0.0\nsamples = 1\nvalue = 10.526", fillcolor="#e58139"] ;
21 -> 22 ;
23 [label="squared_error = -0.0\nsamples = 1\nvalue = 10.262", fillcolor="#e6843d"] ;
21 -> 23 ;
24 [label="level <= 46.5\nsquared_error = 0.008\nsamples = 47\nvalue = 10.513", fillcolor="#e58139"] ;
20 -> 24 ;
25 [label="squared_error = -0.0\nsamples = 36\nvalue = 10.526", fillcolor="#e58139"] ;
24 -> 25 ;
26 [label="level <= 47.5\nsquared_error = 0.031\nsamples = 11\nvalue = 10.47", fillcolor="#e5823a"] ;
24 -> 26 ;
27 [label="squared_error = 0.0\nsamples = 1\nvalue = 9.91", fillcolor="#e68743"] ;
26 -> 27 ;
28 [label="level <= 48.5\nsquared_error = 0.0\nsamples = 10\nvalue = 10.526", fillcolor="#e58139"] ;
26 -> 28 ;
29 [label="squared_error = 0.0\nsamples = 1\nvalue = 10.526", fillcolor="#e58139"] ;
28 -> 29 ;
30 [label="level <= 49.5\nsquared_error = 0.0\nsamples = 9\nvalue = 10.526", fillcolor="#e58139"] ;
28 -> 30 ;
31 [label="squared_error = 0.0\nsamples = 1\nvalue = 10.526", fillcolor="#e58139"] ;
30 -> 31 ;
32 [label="squared_error = 0.0\nsamples = 8\nvalue = 10.526", fillcolor="#e58139"] ;
30 -> 32 ;
33 [label="level <= 58.5\nsquared_error = 3.253\nsamples = 33\nvalue = 10.199", fillcolor="#e6843e"] ;
17 -> 33 ;
34 [label="squared_error = 0.0\nsamples = 1\nvalue = 0.0", fillcolor="#fcefe6"] ;
33 -> 34 ;
35 [label="level <= 73.5\nsquared_error = 0.002\nsamples = 32\nvalue = 10.518", fillcolor="#e58139"] ;
33 -> 35 ;
36 [label="level <= 72.0\nsquared_error = 0.005\nsamples = 12\nvalue = 10.504", fillcolor="#e58139"] ;
35 -> 36 ;
37 [label="level <= 59.5\nsquared_error = 0.0\nsamples = 11\nvalue = 10.526", fillcolor="#e58139"] ;
36 -> 37 ;
38 [label="squared_error = 0.0\nsamples = 1\nvalue = 10.526", fillcolor="#e58139"] ;
37 -> 38 ;
39 [label="level <= 61.0\nsquared_error = 0.0\nsamples = 10\nvalue = 10.526", fillcolor="#e58139"] ;
37 -> 39 ;
40 [label="squared_error = 0.0\nsamples = 1\nvalue = 10.526", fillcolor="#e58139"] ;
39 -> 40 ;
41 [label="level <= 63.0\nsquared_error = 0.0\nsamples = 9\nvalue = 10.526", fillcolor="#e58139"] ;
39 -> 41 ;
42 [label="squared_error = 0.0\nsamples = 1\nvalue = 10.526", fillcolor="#e58139"] ;
41 -> 42 ;
43 [label="squared_error = 0.0\nsamples = 8\nvalue = 10.526", fillcolor="#e58139"] ;
41 -> 43 ;
44 [label="squared_error = -0.0\nsamples = 1\nvalue = 10.262", fillcolor="#e6843d"] ;
36 -> 44 ;
45 [label="squared_error = -0.0\nsamples = 20\nvalue = 10.526", fillcolor="#e58139"] ;
35 -> 45 ;
46 [label="dist_to_cashier <= 2.5\nsquared_error = 10.44\nsamples = 718\nvalue = 1.492", fillcolor="#f9e0ce"] ;
6 -> 46 ;
47 [label="left_product_1_id <= -0.5\nsquared_error = 0.055\nsamples = 471\nvalue = 0.316", fillcolor="#fbece1"] ;
46 -> 47 ;
48 [label="level <= 3.5\nsquared_error = 0.007\nsamples = 149\nvalue = 0.599", fillcolor="#fae9dc"] ;
47 -> 48 ;
49 [label="level <= 2.5\nsquared_error = 0.084\nsamples = 3\nvalue = 0.411", fillcolor="#fbebe0"] ;
48 -> 49 ;
50 [label="squared_error = 0.0\nsamples = 2\nvalue = 0.616", fillcolor="#fae9dc"] ;
49 -> 50 ;
51 [label="squared_error = 0.0\nsamples = 1\nvalue = 0.0", fillcolor="#fcefe6"] ;
49 -> 51 ;
52 [label="level <= 20.5\nsquared_error = 0.005\nsamples = 146\nvalue = 0.603", fillcolor="#fae9dc"] ;
48 -> 52 ;
53 [label="level <= 19.5\nsquared_error = 0.015\nsamples = 29\nvalue = 0.586", fillcolor="#fae9dd"] ;
52 -> 53 ;
54 [label="level <= 9.5\nsquared_error = 0.002\nsamples = 28\nvalue = 0.607", fillcolor="#fae9dc"] ;
53 -> 54 ;
55 [label="level <= 8.5\nsquared_error = 0.006\nsamples = 10\nvalue = 0.59", fillcolor="#fae9dd"] ;
54 -> 55 ;
56 [label="squared_error = 0.0\nsamples = 9\nvalue = 0.616", fillcolor="#fae9dc"] ;
55 -> 56 ;
57 [label="squared_error = -0.0\nsamples = 1\nvalue = 0.352", fillcolor="#fbece1"] ;
55 -> 57 ;
58 [label="squared_error = 0.0\nsamples = 18\nvalue = 0.616", fillcolor="#fae9dc"] ;
54 -> 58 ;
59 [label="squared_error = -0.0\nsamples = 1\nvalue = 0.0", fillcolor="#fcefe6"] ;
53 -> 59 ;
60 [label="level <= 57.5\nsquared_error = 0.002\nsamples = 117\nvalue = 0.607", fillcolor="#fae9dc"] ;
52 -> 60 ;
61 [label="level <= 21.5\nsquared_error = 0.0\nsamples = 55\nvalue = 0.616", fillcolor="#fae9dc"] ;
60 -> 61 ;
62 [label="squared_error = 0.0\nsamples = 2\nvalue = 0.616", fillcolor="#fae9dc"] ;
61 -> 62 ;
63 [label="level <= 22.5\nsquared_error = 0.0\nsamples = 53\nvalue = 0.616", fillcolor="#fae9dc"] ;
61 -> 63 ;
64 [label="squared_error = 0.0\nsamples = 2\nvalue = 0.616", fillcolor="#fae9dc"] ;
63 -> 64 ;
65 [label="level <= 23.5\nsquared_error = 0.0\nsamples = 51\nvalue = 0.616", fillcolor="#fae9dc"] ;
63 -> 65 ;
66 [label="squared_error = 0.0\nsamples = 2\nvalue = 0.616", fillcolor="#fae9dc"] ;
65 -> 66 ;
67 [label="level <= 24.5\nsquared_error = 0.0\nsamples = 49\nvalue = 0.616", fillcolor="#fae9dc"] ;
65 -> 67 ;
68 [label="squared_error = 0.0\nsamples = 2\nvalue = 0.616", fillcolor="#fae9dc"] ;
67 -> 68 ;
69 [label="level <= 25.5\nsquared_error = 0.0\nsamples = 47\nvalue = 0.616", fillcolor="#fae9dc"] ;
67 -> 69 ;
70 [label="squared_error = 0.0\nsamples = 2\nvalue = 0.616", fillcolor="#fae9dc"] ;
69 -> 70 ;
71 [label="squared_error = 0.0\nsamples = 45\nvalue = 0.616", fillcolor="#fae9dc"] ;
69 -> 71 ;
72 [label="level <= 58.5\nsquared_error = 0.004\nsamples = 62\nvalue = 0.599", fillcolor="#fae9dc"] ;
60 -> 72 ;
73 [label="squared_error = 0.0\nsamples = 2\nvalue = 0.352", fillcolor="#fbece1"] ;
72 -> 73 ;
74 [label="level <= 73.5\nsquared_error = 0.002\nsamples = 60\nvalue = 0.607", fillcolor="#fae9dc"] ;
72 -> 74 ;
75 [label="level <= 72.5\nsquared_error = 0.005\nsamples = 25\nvalue = 0.595", fillcolor="#fae9dd"] ;
74 -> 75 ;
76 [label="squared_error = -0.0\nsamples = 23\nvalue = 0.616", fillcolor="#fae9dc"] ;
75 -> 76 ;
77 [label="squared_error = -0.0\nsamples = 2\nvalue = 0.352", fillcolor="#fbece1"] ;
75 -> 77 ;
78 [label="level <= 81.5\nsquared_error = 0.0\nsamples = 35\nvalue = 0.616", fillcolor="#fae9dc"] ;
74 -> 78 ;
79 [label="squared_error = 0.0\nsamples = 11\nvalue = 0.616", fillcolor="#fae9dc"] ;
78 -> 79 ;
80 [label="squared_error = 0.0\nsamples = 24\nvalue = 0.616", fillcolor="#fae9dc"] ;
78 -> 80 ;
81 [label="right_product_2_count <= 0.0\nsquared_error = 0.023\nsamples = 322\nvalue = 0.185", fillcolor="#fbede3"] ;
47 -> 81 ;
82 [label="level <= 1.5\nsquared_error = 0.003\nsamples = 160\nvalue = 0.257", fillcolor="#fbede2"] ;
81 -> 82 ;
83 [label="squared_error = 0.0\nsamples = 2\nvalue = 0.0", fillcolor="#fcefe6"] ;
82 -> 83 ;
84 [label="level <= 96.5\nsquared_error = 0.002\nsamples = 158\nvalue = 0.26", fillcolor="#fbede2"] ;
82 -> 84 ;
85 [label="squared_error = 0.0\nsamples = 154\nvalue = 0.264", fillcolor="#fbede2"] ;
84 -> 85 ;
86 [label="dist_to_cashier <= 1.5\nsquared_error = 0.071\nsamples = 4\nvalue = 0.11", fillcolor="#fceee5"] ;
84 -> 86 ;
87 [label="squared_error = 0.0\nsamples = 2\nvalue = 0.264", fillcolor="#fbede2"] ;
86 -> 87 ;
88 [label="level <= 97.5\nsquared_error = 0.095\nsamples = 2\nvalue = -0.044", fillcolor="#fcf0e7"] ;
86 -> 88 ;
89 [label="squared_error = 0.0\nsamples = 1\nvalue = -0.352", fillcolor="#fdf3ec"] ;
88 -> 89 ;
90 [label="squared_error = 0.0\nsamples = 1\nvalue = 0.264", fillcolor="#fbede2"] ;
88 -> 90 ;
91 [label="dist_to_cashier <= 1.5\nsquared_error = 0.033\nsamples = 162\nvalue = 0.114", fillcolor="#fceee4"] ;
81 -> 91 ;
92 [label="level <= 2.0\nsquared_error = 0.011\nsamples = 78\nvalue = -0.023", fillcolor="#fcf0e7"] ;
91 -> 92 ;
93 [label="squared_error = 0.0\nsamples = 1\nvalue = -0.616", fillcolor="#fdf6f1"] ;
92 -> 93 ;
94 [label="level <= 61.5\nsquared_error = 0.007\nsamples = 77\nvalue = -0.015", fillcolor="#fcefe7"] ;
92 -> 94 ;
95 [label="level <= 53.5\nsquared_error = 0.01\nsamples = 48\nvalue = -0.024", fillcolor="#fcf0e7"] ;
94 -> 95 ;
96 [label="level <= 31.5\nsquared_error = 0.002\nsamples = 41\nvalue = -0.006", fillcolor="#fcefe6"] ;
95 -> 96 ;
97 [label="squared_error = 0.0\nsamples = 25\nvalue = 0.0", fillcolor="#fcefe6"] ;
96 -> 97 ;
98 [label="level <= 33.5\nsquared_error = 0.004\nsamples = 16\nvalue = -0.017", fillcolor="#fcefe7"] ;
96 -> 98 ;
99 [label="squared_error = 0.0\nsamples = 1\nvalue = -0.264", fillcolor="#fcf2eb"] ;
98 -> 99 ;
100 [label="squared_error = 0.0\nsamples = 15\nvalue = 0.0", fillcolor="#fcefe6"] ;
98 -> 100 ;
101 [label="level <= 54.5\nsquared_error = 0.048\nsamples = 7\nvalue = -0.126", fillcolor="#fcf1e8"] ;
95 -> 101 ;
102 [label="squared_error = 0.0\nsamples = 1\nvalue = -0.616", fillcolor="#fdf6f1"] ;
101 -> 102 ;
103 [label="level <= 60.0\nsquared_error = 0.01\nsamples = 6\nvalue = -0.044", fillcolor="#fcf0e7"] ;
101 -> 103 ;
104 [label="squared_error = 0.0\nsamples = 5\nvalue = 0.0", fillcolor="#fcefe6"] ;
103 -> 104 ;
105 [label="squared_error = 0.0\nsamples = 1\nvalue = -0.264", fillcolor="#fcf2eb"] ;
103 -> 105 ;
106 [label="squared_error = 0.0\nsamples = 29\nvalue = 0.0", fillcolor="#fcefe6"] ;
94 -> 106 ;
107 [label="level <= 2.0\nsquared_error = 0.02\nsamples = 84\nvalue = 0.24", fillcolor="#fbede2"] ;
91 -> 107 ;
108 [label="squared_error = 0.0\nsamples = 1\nvalue = -0.968", fillcolor="#fef9f6"] ;
107 -> 108 ;
109 [label="level <= 62.5\nsquared_error = 0.002\nsamples = 83\nvalue = 0.255", fillcolor="#fbede2"] ;
107 -> 109 ;
110 [label="level <= 60.5\nsquared_error = 0.004\nsamples = 52\nvalue = 0.249", fillcolor="#fbede2"] ;
109 -> 110 ;
111 [label="level <= 32.5\nsquared_error = 0.001\nsamples = 50\nvalue = 0.259", fillcolor="#fbede2"] ;
110 -> 111 ;
112 [label="level <= 31.5\nsquared_error = 0.003\nsamples = 24\nvalue = 0.253", fillcolor="#fbede2"] ;
111 -> 112 ;
113 [label="squared_error = 0.0\nsamples = 23\nvalue = 0.264", fillcolor="#fbede2"] ;
112 -> 113 ;
114 [label="squared_error = 0.0\nsamples = 1\nvalue = 0.0", fillcolor="#fcefe6"] ;
112 -> 114 ;
115 [label="squared_error = -0.0\nsamples = 26\nvalue = 0.264", fillcolor="#fbede2"] ;
111 -> 115 ;
116 [label="squared_error = 0.0\nsamples = 2\nvalue = 0.0", fillcolor="#fcefe6"] ;
110 -> 116 ;
117 [label="squared_error = 0.0\nsamples = 31\nvalue = 0.264", fillcolor="#fbede2"] ;
109 -> 117 ;
118 [label="action <= 1.5\nsquared_error = 22.574\nsamples = 247\nvalue = 3.735", fillcolor="#f4c8a9"] ;
46 -> 118 ;
119 [label="tile_left <= 1.5\nsquared_error = 0.207\nsamples = 165\nvalue = 0.429", fillcolor="#fbebdf"] ;
118 -> 119 ;
120 [label="level <= 1.5\nsquared_error = 0.009\nsamples = 83\nvalue = 0.87", fillcolor="#fae6d8"] ;
119 -> 120 ;
121 [label="squared_error = 0.0\nsamples = 1\nvalue = 0.0", fillcolor="#fcefe6"] ;
120 -> 121 ;
122 [label="squared_error = -0.0\nsamples = 82\nvalue = 0.88", fillcolor="#fae6d8"] ;
120 -> 122 ;
123 [label="level <= 3.5\nsquared_error = 0.011\nsamples = 82\nvalue = -0.017", fillcolor="#fcefe7"] ;
119 -> 123 ;
124 [label="level <= 2.5\nsquared_error = 0.194\nsamples = 2\nvalue = -0.44", fillcolor="#fdf4ee"] ;
123 -> 124 ;
125 [label="squared_error = 0.0\nsamples = 1\nvalue = 0.0", fillcolor="#fcefe6"] ;
124 -> 125 ;
126 [label="squared_error = 0.0\nsamples = 1\nvalue = -0.88", fillcolor="#fef9f5"] ;
124 -> 126 ;
127 [label="level <= 9.5\nsquared_error = 0.002\nsamples = 80\nvalue = -0.007", fillcolor="#fcefe6"] ;
123 -> 127 ;
128 [label="level <= 8.5\nsquared_error = 0.011\nsamples = 5\nvalue = -0.053", fillcolor="#fcf0e7"] ;
127 -> 128 ;
129 [label="squared_error = 0.0\nsamples = 4\nvalue = 0.0", fillcolor="#fcefe6"] ;
128 -> 129 ;
130 [label="squared_error = 0.0\nsamples = 1\nvalue = -0.264", fillcolor="#fcf2eb"] ;
128 -> 130 ;
131 [label="level <= 57.0\nsquared_error = 0.001\nsamples = 75\nvalue = -0.004", fillcolor="#fcefe6"] ;
127 -> 131 ;
132 [label="squared_error = 0.0\nsamples = 40\nvalue = 0.0", fillcolor="#fcefe6"] ;
131 -> 132 ;
133 [label="level <= 58.5\nsquared_error = 0.002\nsamples = 35\nvalue = -0.008", fillcolor="#fcefe6"] ;
131 -> 133 ;
134 [label="squared_error = 0.0\nsamples = 1\nvalue = -0.264", fillcolor="#fcf2eb"] ;
133 -> 134 ;
135 [label="squared_error = 0.0\nsamples = 34\nvalue = 0.0", fillcolor="#fcefe6"] ;
133 -> 135 ;
136 [label="level <= 32.5\nsquared_error = 1.337\nsamples = 82\nvalue = 10.387", fillcolor="#e5823b"] ;
118 -> 136 ;
137 [label="level <= 31.5\nsquared_error = 3.812\nsamples = 28\nvalue = 10.128", fillcolor="#e68540"] ;
136 -> 137 ;
138 [label="level <= 1.5\nsquared_error = 0.014\nsamples = 27\nvalue = 10.503", fillcolor="#e58139"] ;
137 -> 138 ;
139 [label="squared_error = 0.0\nsamples = 1\nvalue = 9.91", fillcolor="#e68743"] ;
138 -> 139 ;
140 [label="squared_error = 0.0\nsamples = 26\nvalue = 10.526", fillcolor="#e58139"] ;
138 -> 140 ;
141 [label="squared_error = 0.0\nsamples = 1\nvalue = 0.0", fillcolor="#fcefe6"] ;
137 -> 141 ;
142 [label="level <= 62.0\nsquared_error = 0.001\nsamples = 54\nvalue = 10.521", fillcolor="#e58139"] ;
136 -> 142 ;
143 [label="level <= 60.5\nsquared_error = 0.003\nsamples = 25\nvalue = 10.516", fillcolor="#e58139"] ;
142 -> 143 ;
144 [label="squared_error = 0.0\nsamples = 24\nvalue = 10.526", fillcolor="#e58139"] ;
143 -> 144 ;
145 [label="squared_error = -0.0\nsamples = 1\nvalue = 10.262", fillcolor="#e6843d"] ;
143 -> 145 ;
146 [label="squared_error = -0.0\nsamples = 29\nvalue = 10.526", fillcolor="#e58139"] ;
142 -> 146 ;
147 [label="dist_to_cashier <= 0.5\nsquared_error = 0.11\nsamples = 627\nvalue = 0.395", fillcolor="#fbebe0"] ;
5 -> 147 ;
148 [label="tile_up <= 4.5\nsquared_error = 0.028\nsamples = 155\nvalue = 0.109", fillcolor="#fceee5"] ;
147 -> 148 ;
149 [label="level <= 3.5\nsquared_error = 0.01\nsamples = 77\nvalue = -0.022", fillcolor="#fcf0e7"] ;
148 -> 149 ;
150 [label="level <= 2.5\nsquared_error = 0.079\nsamples = 3\nvalue = -0.396", fillcolor="#fdf3ed"] ;
149 -> 150 ;
151 [label="level <= 1.5\nsquared_error = 0.082\nsamples = 2\nvalue = -0.286", fillcolor="#fcf2eb"] ;
150 -> 151 ;
152 [label="squared_error = 0.0\nsamples = 1\nvalue = -0.572", fillcolor="#fdf5f0"] ;
151 -> 152 ;
153 [label="squared_error = 0.0\nsamples = 1\nvalue = 0.0", fillcolor="#fcefe6"] ;
151 -> 153 ;
154 [label="squared_error = 0.0\nsamples = 1\nvalue = -0.616", fillcolor="#fdf6f1"] ;
150 -> 154 ;
155 [label="level <= 18.5\nsquared_error = 0.002\nsamples = 74\nvalue = -0.007", fillcolor="#fcefe6"] ;
149 -> 155 ;
156 [label="level <= 17.5\nsquared_error = 0.01\nsamples = 11\nvalue = -0.048", fillcolor="#fcf0e7"] ;
155 -> 156 ;
157 [label="level <= 10.0\nsquared_error = 0.006\nsamples = 10\nvalue = -0.026", fillcolor="#fcf0e7"] ;
156 -> 157 ;
158 [label="squared_error = 0.0\nsamples = 5\nvalue = 0.0", fillcolor="#fcefe6"] ;
157 -> 158 ;
159 [label="level <= 11.5\nsquared_error = 0.011\nsamples = 5\nvalue = -0.053", fillcolor="#fcf0e7"] ;
157 -> 159 ;
160 [label="squared_error = 0.0\nsamples = 1\nvalue = -0.264", fillcolor="#fcf2eb"] ;
159 -> 160 ;
161 [label="squared_error = 0.0\nsamples = 4\nvalue = 0.0", fillcolor="#fcefe6"] ;
159 -> 161 ;
162 [label="squared_error = 0.0\nsamples = 1\nvalue = -0.264", fillcolor="#fcf2eb"] ;
156 -> 162 ;
163 [label="squared_error = 0.0\nsamples = 63\nvalue = 0.0", fillcolor="#fcefe6"] ;
155 -> 163 ;
164 [label="level <= 6.5\nsquared_error = 0.012\nsamples = 78\nvalue = 0.238", fillcolor="#fbede2"] ;
148 -> 164 ;
165 [label="level <= 3.5\nsquared_error = 0.05\nsamples = 6\nvalue = 0.073", fillcolor="#fcefe5"] ;
164 -> 165 ;
166 [label="squared_error = 0.0\nsamples = 3\nvalue = 0.264", fillcolor="#fbede2"] ;
165 -> 166 ;
167 [label="level <= 5.5\nsquared_error = 0.028\nsamples = 3\nvalue = -0.117", fillcolor="#fcf1e8"] ;
165 -> 167 ;
168 [label="squared_error = 0.0\nsamples = 2\nvalue = 0.0", fillcolor="#fcefe6"] ;
167 -> 168 ;
169 [label="squared_error = 0.0\nsamples = 1\nvalue = -0.352", fillcolor="#fdf3ec"] ;
167 -> 169 ;
170 [label="level <= 95.5\nsquared_error = 0.006\nsamples = 72\nvalue = 0.252", fillcolor="#fbede2"] ;
164 -> 170 ;
171 [label="level <= 24.5\nsquared_error = 0.005\nsamples = 70\nvalue = 0.255", fillcolor="#fbede2"] ;
170 -> 171 ;
172 [label="level <= 23.0\nsquared_error = 0.027\nsamples = 13\nvalue = 0.217", fillcolor="#fbede3"] ;
171 -> 172 ;
173 [label="squared_error = 0.0\nsamples = 12\nvalue = 0.264", fillcolor="#fbede2"] ;
172 -> 173 ;
174 [label="squared_error = -0.0\nsamples = 1\nvalue = -0.352", fillcolor="#fdf3ec"] ;
172 -> 174 ;
175 [label="squared_error = 0.0\nsamples = 57\nvalue = 0.264", fillcolor="#fbede2"] ;
171 -> 175 ;
176 [label="level <= 97.0\nsquared_error = 0.017\nsamples = 2\nvalue = 0.132", fillcolor="#fbeee4"] ;
170 -> 176 ;
177 [label="squared_error = 0.0\nsamples = 1\nvalue = 0.0", fillcolor="#fcefe6"] ;
176 -> 177 ;
178 [label="squared_error = 0.0\nsamples = 1\nvalue = 0.264", fillcolor="#fbede2"] ;
176 -> 178 ;
179 [label="action <= 0.5\nsquared_error = 0.101\nsamples = 472\nvalue = 0.489", fillcolor="#fbeade"] ;
147 -> 179 ;
180 [label="dist_to_cashier <= 1.5\nsquared_error = 0.075\nsamples = 234\nvalue = 0.264", fillcolor="#fbede2"] ;
179 -> 180 ;
181 [label="level <= 5.5\nsquared_error = 0.011\nsamples = 76\nvalue = 0.593", fillcolor="#fae9dd"] ;
180 -> 181 ;
182 [label="level <= 4.5\nsquared_error = 0.059\nsamples = 5\nvalue = 0.44", fillcolor="#fbebdf"] ;
181 -> 182 ;
183 [label="level <= 3.5\nsquared_error = 0.013\nsamples = 4\nvalue = 0.55", fillcolor="#fbeadd"] ;
182 -> 183 ;
184 [label="squared_error = -0.0\nsamples = 3\nvalue = 0.616", fillcolor="#fae9dc"] ;
183 -> 184 ;
185 [label="squared_error = 0.0\nsamples = 1\nvalue = 0.352", fillcolor="#fbece1"] ;
183 -> 185 ;
186 [label="squared_error = 0.0\nsamples = 1\nvalue = 0.0", fillcolor="#fcefe6"] ;
182 -> 186 ;
187 [label="level <= 82.5\nsquared_error = 0.006\nsamples = 71\nvalue = 0.604", fillcolor="#fae9dc"] ;
181 -> 187 ;
188 [label="level <= 8.5\nsquared_error = 0.0\nsamples = 57\nvalue = 0.616", fillcolor="#fae9dc"] ;
187 -> 188 ;
189 [label="squared_error = -0.0\nsamples = 3\nvalue = 0.616", fillcolor="#fae9dc"] ;
188 -> 189 ;
190 [label="level <= 10.5\nsquared_error = 0.0\nsamples = 54\nvalue = 0.616", fillcolor="#fae9dc"] ;
188 -> 190 ;
191 [label="squared_error = 0.0\nsamples = 1\nvalue = 0.616", fillcolor="#fae9dc"] ;
190 -> 191 ;
192 [label="level <= 12.5\nsquared_error = 0.0\nsamples = 53\nvalue = 0.616", fillcolor="#fae9dc"] ;
190 -> 192 ;
193 [label="squared_error = 0.0\nsamples = 1\nvalue = 0.616", fillcolor="#fae9dc"] ;
192 -> 193 ;
194 [label="level <= 20.5\nsquared_error = 0.0\nsamples = 52\nvalue = 0.616", fillcolor="#fae9dc"] ;
192 -> 194 ;
195 [label="squared_error = -0.0\nsamples = 3\nvalue = 0.616", fillcolor="#fae9dc"] ;
194 -> 195 ;
196 [label="level <= 22.5\nsquared_error = 0.0\nsamples = 49\nvalue = 0.616", fillcolor="#fae9dc"] ;
194 -> 196 ;
197 [label="squared_error = 0.0\nsamples = 1\nvalue = 0.616", fillcolor="#fae9dc"] ;
196 -> 197 ;
198 [label="level <= 23.5\nsquared_error = 0.0\nsamples = 48\nvalue = 0.616", fillcolor="#fae9dc"] ;
196 -> 198 ;
199 [label="squared_error = 0.0\nsamples = 1\nvalue = 0.616", fillcolor="#fae9dc"] ;
198 -> 199 ;
200 [label="level <= 24.5\nsquared_error = 0.0\nsamples = 47\nvalue = 0.616", fillcolor="#fae9dc"] ;
198 -> 200 ;
201 [label="squared_error = 0.0\nsamples = 1\nvalue = 0.616", fillcolor="#fae9dc"] ;
200 -> 201 ;
202 [label="squared_error = 0.0\nsamples = 46\nvalue = 0.616", fillcolor="#fae9dc"] ;
200 -> 202 ;
203 [label="level <= 83.5\nsquared_error = 0.028\nsamples = 14\nvalue = 0.553", fillcolor="#fbeadd"] ;
187 -> 203 ;
204 [label="squared_error = 0.0\nsamples = 1\nvalue = 0.0", fillcolor="#fcefe6"] ;
203 -> 204 ;
205 [label="level <= 95.5\nsquared_error = 0.005\nsamples = 13\nvalue = 0.596", fillcolor="#fae9dd"] ;
203 -> 205 ;
206 [label="squared_error = 0.0\nsamples = 10\nvalue = 0.616", fillcolor="#fae9dc"] ;
205 -> 206 ;
207 [label="level <= 96.5\nsquared_error = 0.015\nsamples = 3\nvalue = 0.528", fillcolor="#fbeade"] ;
205 -> 207 ;
208 [label="squared_error = 0.0\nsamples = 1\nvalue = 0.352", fillcolor="#fbece1"] ;
207 -> 208 ;
209 [label="squared_error = 0.0\nsamples = 2\nvalue = 0.616", fillcolor="#fae9dc"] ;
207 -> 209 ;
210 [label="dist_to_cashier <= 2.5\nsquared_error = 0.028\nsamples = 158\nvalue = 0.106", fillcolor="#fceee5"] ;
180 -> 210 ;
211 [label="level <= 6.5\nsquared_error = 0.011\nsamples = 80\nvalue = -0.022", fillcolor="#fcf0e7"] ;
210 -> 211 ;
212 [label="level <= 5.5\nsquared_error = 0.051\nsamples = 5\nvalue = -0.229", fillcolor="#fcf2ea"] ;
211 -> 212 ;
213 [label="level <= 3.5\nsquared_error = 0.017\nsamples = 4\nvalue = -0.132", fillcolor="#fcf1e9"] ;
212 -> 213 ;
214 [label="squared_error = 0.0\nsamples = 2\nvalue = 0.0", fillcolor="#fcefe6"] ;
213 -> 214 ;
215 [label="squared_error = 0.0\nsamples = 2\nvalue = -0.264", fillcolor="#fcf2eb"] ;
213 -> 215 ;
216 [label="squared_error = 0.0\nsamples = 1\nvalue = -0.616", fillcolor="#fdf6f1"] ;
212 -> 216 ;
217 [label="level <= 30.5\nsquared_error = 0.005\nsamples = 75\nvalue = -0.008", fillcolor="#fcefe6"] ;
211 -> 217 ;
218 [label="level <= 29.5\nsquared_error = 0.019\nsamples = 19\nvalue = -0.032", fillcolor="#fcf0e7"] ;
217 -> 218 ;
219 [label="squared_error = 0.0\nsamples = 18\nvalue = 0.0", fillcolor="#fcefe6"] ;
218 -> 219 ;
220 [label="squared_error = 0.0\nsamples = 1\nvalue = -0.616", fillcolor="#fdf6f1"] ;
218 -> 220 ;
221 [label="squared_error = 0.0\nsamples = 56\nvalue = 0.0", fillcolor="#fcefe6"] ;
217 -> 221 ;
222 [label="level <= 2.0\nsquared_error = 0.012\nsamples = 78\nvalue = 0.238", fillcolor="#fbede2"] ;
210 -> 222 ;
223 [label="squared_error = 0.0\nsamples = 1\nvalue = -0.352", fillcolor="#fdf3ec"] ;
222 -> 223 ;
224 [label="level <= 5.5\nsquared_error = 0.007\nsamples = 77\nvalue = 0.246", fillcolor="#fbede2"] ;
222 -> 224 ;
225 [label="level <= 3.5\nsquared_error = 0.015\nsamples = 3\nvalue = 0.088", fillcolor="#fceee5"] ;
224 -> 225 ;
226 [label="squared_error = 0.0\nsamples = 1\nvalue = 0.264", fillcolor="#fbede2"] ;
225 -> 226 ;
227 [label="squared_error = 0.0\nsamples = 2\nvalue = 0.0", fillcolor="#fcefe6"] ;
225 -> 227 ;
228 [label="level <= 84.5\nsquared_error = 0.006\nsamples = 74\nvalue = 0.252", fillcolor="#fbede2"] ;
224 -> 228 ;
229 [label="squared_error = -0.0\nsamples = 62\nvalue = 0.264", fillcolor="#fbede2"] ;
228 -> 229 ;
230 [label="level <= 85.5\nsquared_error = 0.032\nsamples = 12\nvalue = 0.191", fillcolor="#fbede3"] ;
228 -> 230 ;
231 [label="squared_error = 0.0\nsamples = 1\nvalue = -0.352", fillcolor="#fdf3ec"] ;
230 -> 231 ;
232 [label="level <= 95.5\nsquared_error = 0.006\nsamples = 11\nvalue = 0.24", fillcolor="#fbede2"] ;
230 -> 232 ;
233 [label="squared_error = 0.0\nsamples = 9\nvalue = 0.264", fillcolor="#fbede2"] ;
232 -> 233 ;
234 [label="level <= 97.0\nsquared_error = 0.017\nsamples = 2\nvalue = 0.132", fillcolor="#fbeee4"] ;
232 -> 234 ;
235 [label="squared_error = 0.0\nsamples = 1\nvalue = 0.0", fillcolor="#fcefe6"] ;
234 -> 235 ;
236 [label="squared_error = 0.0\nsamples = 1\nvalue = 0.264", fillcolor="#fbede2"] ;
234 -> 236 ;
237 [label="dist_to_cashier <= 1.5\nsquared_error = 0.028\nsamples = 238\nvalue = 0.71", fillcolor="#fae8db"] ;
179 -> 237 ;
238 [label="level <= 2.5\nsquared_error = 0.0\nsamples = 80\nvalue = 0.924", fillcolor="#fae6d7"] ;
237 -> 238 ;
239 [label="squared_error = 0.0\nsamples = 1\nvalue = 0.924", fillcolor="#fae6d7"] ;
238 -> 239 ;
240 [label="level <= 3.5\nsquared_error = 0.0\nsamples = 79\nvalue = 0.924", fillcolor="#fae6d7"] ;
238 -> 240 ;
241 [label="squared_error = 0.0\nsamples = 1\nvalue = 0.924", fillcolor="#fae6d7"] ;
240 -> 241 ;
242 [label="level <= 5.5\nsquared_error = 0.0\nsamples = 78\nvalue = 0.924", fillcolor="#fae6d7"] ;
240 -> 242 ;
243 [label="squared_error = 0.0\nsamples = 1\nvalue = 0.924", fillcolor="#fae6d7"] ;
242 -> 243 ;
244 [label="level <= 7.5\nsquared_error = 0.0\nsamples = 77\nvalue = 0.924", fillcolor="#fae6d7"] ;
242 -> 244 ;
245 [label="squared_error = 0.0\nsamples = 1\nvalue = 0.924", fillcolor="#fae6d7"] ;
244 -> 245 ;
246 [label="level <= 8.5\nsquared_error = 0.0\nsamples = 76\nvalue = 0.924", fillcolor="#fae6d7"] ;
244 -> 246 ;
247 [label="squared_error = 0.0\nsamples = 1\nvalue = 0.924", fillcolor="#fae6d7"] ;
246 -> 247 ;
248 [label="level <= 9.5\nsquared_error = 0.0\nsamples = 75\nvalue = 0.924", fillcolor="#fae6d7"] ;
246 -> 248 ;
249 [label="squared_error = 0.0\nsamples = 1\nvalue = 0.924", fillcolor="#fae6d7"] ;
248 -> 249 ;
250 [label="level <= 16.0\nsquared_error = 0.0\nsamples = 74\nvalue = 0.924", fillcolor="#fae6d7"] ;
248 -> 250 ;
251 [label="squared_error = 0.0\nsamples = 4\nvalue = 0.924", fillcolor="#fae6d7"] ;
250 -> 251 ;
252 [label="level <= 18.0\nsquared_error = 0.0\nsamples = 70\nvalue = 0.924", fillcolor="#fae6d7"] ;
250 -> 252 ;
253 [label="squared_error = 0.0\nsamples = 1\nvalue = 0.924", fillcolor="#fae6d7"] ;
252 -> 253 ;
254 [label="level <= 25.5\nsquared_error = 0.0\nsamples = 69\nvalue = 0.924", fillcolor="#fae6d7"] ;
252 -> 254 ;
255 [label="squared_error = 0.0\nsamples = 7\nvalue = 0.924", fillcolor="#fae6d7"] ;
254 -> 255 ;
256 [label="level <= 29.5\nsquared_error = 0.0\nsamples = 62\nvalue = 0.924", fillcolor="#fae6d7"] ;
254 -> 256 ;
257 [label="squared_error = 0.0\nsamples = 3\nvalue = 0.924", fillcolor="#fae6d7"] ;
256 -> 257 ;
258 [label="level <= 30.5\nsquared_error = 0.0\nsamples = 59\nvalue = 0.924", fillcolor="#fae6d7"] ;
256 -> 258 ;
259 [label="squared_error = 0.0\nsamples = 1\nvalue = 0.924", fillcolor="#fae6d7"] ;
258 -> 259 ;
260 [label="level <= 33.0\nsquared_error = 0.0\nsamples = 58\nvalue = 0.924", fillcolor="#fae6d7"] ;
258 -> 260 ;
261 [label="squared_error = 0.0\nsamples = 1\nvalue = 0.924", fillcolor="#fae6d7"] ;
260 -> 261 ;
262 [label="level <= 35.5\nsquared_error = 0.0\nsamples = 57\nvalue = 0.924", fillcolor="#fae6d7"] ;
260 -> 262 ;
263 [label="squared_error = 0.0\nsamples = 1\nvalue = 0.924", fillcolor="#fae6d7"] ;
262 -> 263 ;
264 [label="level <= 36.5\nsquared_error = 0.0\nsamples = 56\nvalue = 0.924", fillcolor="#fae6d7"] ;
262 -> 264 ;
265 [label="squared_error = 0.0\nsamples = 1\nvalue = 0.924", fillcolor="#fae6d7"] ;
264 -> 265 ;
266 [label="level <= 38.0\nsquared_error = 0.0\nsamples = 55\nvalue = 0.924", fillcolor="#fae6d7"] ;
264 -> 266 ;
267 [label="squared_error = 0.0\nsamples = 1\nvalue = 0.924", fillcolor="#fae6d7"] ;
266 -> 267 ;
268 [label="level <= 39.5\nsquared_error = 0.0\nsamples = 54\nvalue = 0.924", fillcolor="#fae6d7"] ;
266 -> 268 ;
269 [label="squared_error = 0.0\nsamples = 1\nvalue = 0.924", fillcolor="#fae6d7"] ;
268 -> 269 ;
270 [label="level <= 47.5\nsquared_error = 0.0\nsamples = 53\nvalue = 0.924", fillcolor="#fae6d7"] ;
268 -> 270 ;
271 [label="squared_error = 0.0\nsamples = 8\nvalue = 0.924", fillcolor="#fae6d7"] ;
270 -> 271 ;
272 [label="level <= 48.5\nsquared_error = 0.0\nsamples = 45\nvalue = 0.924", fillcolor="#fae6d7"] ;
270 -> 272 ;
273 [label="squared_error = 0.0\nsamples = 1\nvalue = 0.924", fillcolor="#fae6d7"] ;
272 -> 273 ;
274 [label="squared_error = 0.0\nsamples = 44\nvalue = 0.924", fillcolor="#fae6d7"] ;
272 -> 274 ;
275 [label="level <= 1.5\nsquared_error = 0.008\nsamples = 158\nvalue = 0.601", fillcolor="#fae9dc"] ;
237 -> 275 ;
276 [label="squared_error = 0.0\nsamples = 1\nvalue = 0.044", fillcolor="#fcefe6"] ;
275 -> 276 ;
277 [label="level <= 18.5\nsquared_error = 0.006\nsamples = 157\nvalue = 0.605", fillcolor="#fae9dc"] ;
275 -> 277 ;
278 [label="level <= 17.5\nsquared_error = 0.027\nsamples = 28\nvalue = 0.563", fillcolor="#fbe9dd"] ;
277 -> 278 ;
279 [label="level <= 10.5\nsquared_error = 0.016\nsamples = 27\nvalue = 0.584", fillcolor="#fbe9dd"] ;
278 -> 279 ;
280 [label="squared_error = -0.0\nsamples = 16\nvalue = 0.616", fillcolor="#fae9dc"] ;
279 -> 280 ;
281 [label="level <= 11.5\nsquared_error = 0.034\nsamples = 11\nvalue = 0.536", fillcolor="#fbeade"] ;
279 -> 281 ;
282 [label="dist_to_cashier <= 2.5\nsquared_error = 0.031\nsamples = 2\nvalue = 0.176", fillcolor="#fbede3"] ;
281 -> 282 ;
283 [label="squared_error = 0.0\nsamples = 1\nvalue = 0.0", fillcolor="#fcefe6"] ;
282 -> 283 ;
284 [label="squared_error = 0.0\nsamples = 1\nvalue = 0.352", fillcolor="#fbece1"] ;
282 -> 284 ;
285 [label="squared_error = 0.0\nsamples = 9\nvalue = 0.616", fillcolor="#fae9dc"] ;
281 -> 285 ;
286 [label="squared_error = 0.0\nsamples = 1\nvalue = 0.0", fillcolor="#fcefe6"] ;
278 -> 286 ;
287 [label="dist_to_cashier <= 2.5\nsquared_error = 0.001\nsamples = 129\nvalue = 0.614", fillcolor="#fae9dc"] ;
277 -> 287 ;
288 [label="level <= 35.5\nsquared_error = 0.0\nsamples = 70\nvalue = 0.616", fillcolor="#fae9dc"] ;
287 -> 288 ;
289 [label="squared_error = -0.0\nsamples = 16\nvalue = 0.616", fillcolor="#fae9dc"] ;
288 -> 289 ;
290 [label="level <= 36.5\nsquared_error = 0.0\nsamples = 54\nvalue = 0.616", fillcolor="#fae9dc"] ;
288 -> 290 ;
291 [label="squared_error = 0.0\nsamples = 1\nvalue = 0.616", fillcolor="#fae9dc"] ;
290 -> 291 ;
292 [label="level <= 37.5\nsquared_error = 0.0\nsamples = 53\nvalue = 0.616", fillcolor="#fae9dc"] ;
290 -> 292 ;
293 [label="squared_error = 0.0\nsamples = 1\nvalue = 0.616", fillcolor="#fae9dc"] ;
292 -> 293 ;
294 [label="level <= 40.5\nsquared_error = 0.0\nsamples = 52\nvalue = 0.616", fillcolor="#fae9dc"] ;
292 -> 294 ;
295 [label="squared_error = -0.0\nsamples = 3\nvalue = 0.616", fillcolor="#fae9dc"] ;
294 -> 295 ;
296 [label="level <= 41.5\nsquared_error = 0.0\nsamples = 49\nvalue = 0.616", fillcolor="#fae9dc"] ;
294 -> 296 ;
297 [label="squared_error = 0.0\nsamples = 1\nvalue = 0.616", fillcolor="#fae9dc"] ;
296 -> 297 ;
298 [label="level <= 42.5\nsquared_error = 0.0\nsamples = 48\nvalue = 0.616", fillcolor="#fae9dc"] ;
296 -> 298 ;
299 [label="squared_error = 0.0\nsamples = 1\nvalue = 0.616", fillcolor="#fae9dc"] ;
298 -> 299 ;
300 [label="level <= 43.5\nsquared_error = 0.0\nsamples = 47\nvalue = 0.616", fillcolor="#fae9dc"] ;
298 -> 300 ;
301 [label="squared_error = 0.0\nsamples = 1\nvalue = 0.616", fillcolor="#fae9dc"] ;
300 -> 301 ;
302 [label="squared_error = 0.0\nsamples = 46\nvalue = 0.616", fillcolor="#fae9dc"] ;
300 -> 302 ;
303 [label="level <= 63.0\nsquared_error = 0.001\nsamples = 59\nvalue = 0.612", fillcolor="#fae9dc"] ;
287 -> 303 ;
304 [label="squared_error = 0.0\nsamples = 32\nvalue = 0.616", fillcolor="#fae9dc"] ;
303 -> 304 ;
305 [label="level <= 65.0\nsquared_error = 0.002\nsamples = 27\nvalue = 0.606", fillcolor="#fae9dc"] ;
303 -> 305 ;
306 [label="squared_error = 0.0\nsamples = 1\nvalue = 0.352", fillcolor="#fbece1"] ;
305 -> 306 ;
307 [label="squared_error = 0.0\nsamples = 26\nvalue = 0.616", fillcolor="#fae9dc"] ;
305 -> 307 ;
308 [label="dist_to_exit <= 14.5\nsquared_error = 1.517\nsamples = 6244\nvalue = 0.561", fillcolor="#fbe9dd"] ;
4 -> 308 ;
309 [label="right_product_3_count <= 3.5\nsquared_error = 0.462\nsamples = 5629\nvalue = 0.448", fillcolor="#fbebdf"] ;
308 -> 309 ;
310 [label="dist_to_cashier <= 2.5\nsquared_error = 1.765\nsamples = 917\nvalue = 0.926", fillcolor="#fae6d7"] ;
309 -> 310 ;
311 [label="right_product_1_count <= 65.5\nsquared_error = 0.279\nsamples = 688\nvalue = 0.605", fillcolor="#fae9dc"] ;
310 -> 311 ;
312 [label="level <= 1.5\nsquared_error = 0.113\nsamples = 452\nvalue = 0.93", fillcolor="#fae6d7"] ;
311 -> 312 ;
313 [label="dist_to_exit <= 7.5\nsquared_error = 0.182\nsamples = 5\nvalue = 0.141", fillcolor="#fbeee4"] ;
312 -> 313 ;
314 [label="dist_to_cashier <= 0.5\nsquared_error = 0.015\nsamples = 3\nvalue = -0.088", fillcolor="#fcf0e8"] ;
313 -> 314 ;
315 [label="squared_error = 0.0\nsamples = 1\nvalue = 0.0", fillcolor="#fcefe6"] ;
314 -> 315 ;
316 [label="dist_to_cashier <= 1.5\nsquared_error = 0.017\nsamples = 2\nvalue = -0.132", fillcolor="#fcf1e9"] ;
314 -> 316 ;
317 [label="squared_error = 0.0\nsamples = 1\nvalue = -0.264", fillcolor="#fcf2eb"] ;
316 -> 317 ;
318 [label="squared_error = 0.0\nsamples = 1\nvalue = 0.0", fillcolor="#fcefe6"] ;
316 -> 318 ;
319 [label="dist_to_cashier <= 1.5\nsquared_error = 0.234\nsamples = 2\nvalue = 0.484", fillcolor="#fbeade"] ;
313 -> 319 ;
320 [label="squared_error = 0.0\nsamples = 1\nvalue = 0.968", fillcolor="#fae5d6"] ;
319 -> 320 ;
321 [label="squared_error = 0.0\nsamples = 1\nvalue = 0.0", fillcolor="#fcefe6"] ;
319 -> 321 ;
322 [label="dist_to_cashier <= 0.5\nsquared_error = 0.105\nsamples = 447\nvalue = 0.939", fillcolor="#fae5d7"] ;
312 -> 322 ;
323 [label="right_product_1_count <= 29.5\nsquared_error = 0.2\nsamples = 151\nvalue = 1.019", fillcolor="#fae5d6"] ;
322 -> 323 ;
324 [label="level <= 9.5\nsquared_error = 0.002\nsamples = 71\nvalue = 1.489", fillcolor="#f9e0ce"] ;
323 -> 324 ;
325 [label="level <= 8.5\nsquared_error = 0.008\nsamples = 8\nvalue = 1.463", fillcolor="#f9e0ce"] ;
324 -> 325 ;
326 [label="squared_error = 0.0\nsamples = 7\nvalue = 1.496", fillcolor="#f9e0ce"] ;
325 -> 326 ;
327 [label="squared_error = -0.0\nsamples = 1\nvalue = 1.232", fillcolor="#f9e2d2"] ;
325 -> 327 ;
328 [label="level <= 66.5\nsquared_error = 0.001\nsamples = 63\nvalue = 1.492", fillcolor="#f9e0ce"] ;
324 -> 328 ;
329 [label="level <= 10.5\nsquared_error = 0.0\nsamples = 41\nvalue = 1.496", fillcolor="#f9e0ce"] ;
328 -> 329 ;
330 [label="squared_error = 0.0\nsamples = 1\nvalue = 1.496", fillcolor="#f9e0ce"] ;
329 -> 330 ;
331 [label="level <= 12.5\nsquared_error = 0.0\nsamples = 40\nvalue = 1.496", fillcolor="#f9e0ce"] ;
329 -> 331 ;
332 [label="squared_error = 0.0\nsamples = 2\nvalue = 1.496", fillcolor="#f9e0ce"] ;
331 -> 332 ;
333 [label="level <= 13.5\nsquared_error = 0.0\nsamples = 38\nvalue = 1.496", fillcolor="#f9e0ce"] ;
331 -> 333 ;
334 [label="squared_error = 0.0\nsamples = 1\nvalue = 1.496", fillcolor="#f9e0ce"] ;
333 -> 334 ;
335 [label="level <= 14.5\nsquared_error = 0.0\nsamples = 37\nvalue = 1.496", fillcolor="#f9e0ce"] ;
333 -> 335 ;
336 [label="squared_error = 0.0\nsamples = 1\nvalue = 1.496", fillcolor="#f9e0ce"] ;
335 -> 336 ;
337 [label="level <= 15.5\nsquared_error = 0.0\nsamples = 36\nvalue = 1.496", fillcolor="#f9e0ce"] ;
335 -> 337 ;
338 [label="squared_error = 0.0\nsamples = 1\nvalue = 1.496", fillcolor="#f9e0ce"] ;
337 -> 338 ;
339 [label="level <= 17.5\nsquared_error = 0.0\nsamples = 35\nvalue = 1.496", fillcolor="#f9e0ce"] ;
337 -> 339 ;
340 [label="squared_error = 0.0\nsamples = 2\nvalue = 1.496", fillcolor="#f9e0ce"] ;
339 -> 340 ;
341 [label="level <= 21.0\nsquared_error = 0.0\nsamples = 33\nvalue = 1.496", fillcolor="#f9e0ce"] ;
339 -> 341 ;
342 [label="squared_error = 0.0\nsamples = 1\nvalue = 1.496", fillcolor="#f9e0ce"] ;
341 -> 342 ;
343 [label="level <= 24.5\nsquared_error = 0.0\nsamples = 32\nvalue = 1.496", fillcolor="#f9e0ce"] ;
341 -> 343 ;
344 [label="squared_error = 0.0\nsamples = 1\nvalue = 1.496", fillcolor="#f9e0ce"] ;
343 -> 344 ;
345 [label="level <= 25.5\nsquared_error = 0.0\nsamples = 31\nvalue = 1.496", fillcolor="#f9e0ce"] ;
343 -> 345 ;
346 [label="squared_error = 0.0\nsamples = 1\nvalue = 1.496", fillcolor="#f9e0ce"] ;
345 -> 346 ;
347 [label="level <= 37.5\nsquared_error = 0.0\nsamples = 30\nvalue = 1.496", fillcolor="#f9e0ce"] ;
345 -> 347 ;
348 [label="squared_error = -0.0\nsamples = 10\nvalue = 1.496", fillcolor="#f9e0ce"] ;
347 -> 348 ;
349 [label="level <= 39.0\nsquared_error = 0.0\nsamples = 20\nvalue = 1.496", fillcolor="#f9e0ce"] ;
347 -> 349 ;
350 [label="squared_error = 0.0\nsamples = 1\nvalue = 1.496", fillcolor="#f9e0ce"] ;
349 -> 350 ;
351 [label="squared_error = 0.0\nsamples = 19\nvalue = 1.496", fillcolor="#f9e0ce"] ;
349 -> 351 ;
352 [label="level <= 68.0\nsquared_error = 0.003\nsamples = 22\nvalue = 1.484", fillcolor="#f9e0ce"] ;
328 -> 352 ;
353 [label="squared_error = 0.0\nsamples = 1\nvalue = 1.232", fillcolor="#f9e2d2"] ;
352 -> 353 ;
354 [label="squared_error = 0.0\nsamples = 21\nvalue = 1.496", fillcolor="#f9e0ce"] ;
352 -> 354 ;
355 [label="level <= 3.5\nsquared_error = 0.006\nsamples = 80\nvalue = 0.602", fillcolor="#fae9dc"] ;
323 -> 355 ;
356 [label="level <= 2.5\nsquared_error = 0.017\nsamples = 2\nvalue = 0.484", fillcolor="#fbeade"] ;
355 -> 356 ;
357 [label="squared_error = 0.0\nsamples = 1\nvalue = 0.616", fillcolor="#fae9dc"] ;
356 -> 357 ;
358 [label="squared_error = -0.0\nsamples = 1\nvalue = 0.352", fillcolor="#fbece1"] ;
356 -> 358 ;
359 [label="level <= 9.5\nsquared_error = 0.006\nsamples = 78\nvalue = 0.605", fillcolor="#fae9dc"] ;
355 -> 359 ;
360 [label="level <= 8.5\nsquared_error = 0.01\nsamples = 6\nvalue = 0.572", fillcolor="#fbe9dd"] ;
359 -> 360 ;
361 [label="squared_error = 0.0\nsamples = 5\nvalue = 0.616", fillcolor="#fae9dc"] ;
360 -> 361 ;
362 [label="squared_error = -0.0\nsamples = 1\nvalue = 0.352", fillcolor="#fbece1"] ;
360 -> 362 ;
363 [label="level <= 57.5\nsquared_error = 0.005\nsamples = 72\nvalue = 0.608", fillcolor="#fae9dc"] ;
359 -> 363 ;
364 [label="squared_error = 0.0\nsamples = 43\nvalue = 0.616", fillcolor="#fae9dc"] ;
363 -> 364 ;
365 [label="level <= 58.5\nsquared_error = 0.013\nsamples = 29\nvalue = 0.595", fillcolor="#fae9dd"] ;
363 -> 365 ;
366 [label="squared_error = 0.0\nsamples = 1\nvalue = 0.0", fillcolor="#fcefe6"] ;
365 -> 366 ;
367 [label="squared_error = 0.0\nsamples = 28\nvalue = 0.616", fillcolor="#fae9dc"] ;
365 -> 367 ;
368 [label="dist_to_exit <= 7.5\nsquared_error = 0.052\nsamples = 296\nvalue = 0.898", fillcolor="#fae6d8"] ;
322 -> 368 ;
369 [label="dist_to_cashier <= 1.5\nsquared_error = 0.022\nsamples = 149\nvalue = 0.741", fillcolor="#fae8da"] ;
368 -> 369 ;
370 [label="level <= 9.5\nsquared_error = 0.006\nsamples = 73\nvalue = 0.604", fillcolor="#fae9dc"] ;
369 -> 370 ;
371 [label="level <= 8.5\nsquared_error = 0.071\nsamples = 4\nvalue = 0.462", fillcolor="#fbeadf"] ;
370 -> 371 ;
372 [label="squared_error = -0.0\nsamples = 3\nvalue = 0.616", fillcolor="#fae9dc"] ;
371 -> 372 ;
373 [label="squared_error = 0.0\nsamples = 1\nvalue = 0.0", fillcolor="#fcefe6"] ;
371 -> 373 ;
374 [label="level <= 66.5\nsquared_error = 0.001\nsamples = 69\nvalue = 0.612", fillcolor="#fae9dc"] ;
370 -> 374 ;
375 [label="squared_error = 0.0\nsamples = 45\nvalue = 0.616", fillcolor="#fae9dc"] ;
374 -> 375 ;
376 [label="level <= 67.5\nsquared_error = 0.003\nsamples = 24\nvalue = 0.605", fillcolor="#fae9dc"] ;
374 -> 376 ;
377 [label="squared_error = 0.0\nsamples = 1\nvalue = 0.352", fillcolor="#fbece1"] ;
376 -> 377 ;
378 [label="squared_error = -0.0\nsamples = 23\nvalue = 0.616", fillcolor="#fae9dc"] ;
376 -> 378 ;
379 [label="level <= 9.5\nsquared_error = 0.002\nsamples = 76\nvalue = 0.873", fillcolor="#fae6d8"] ;
369 -> 379 ;
380 [label="level <= 8.5\nsquared_error = 0.01\nsamples = 6\nvalue = 0.836", fillcolor="#fae7d9"] ;
379 -> 380 ;
381 [label="squared_error = 0.0\nsamples = 5\nvalue = 0.88", fillcolor="#fae6d8"] ;
380 -> 381 ;
382 [label="squared_error = -0.0\nsamples = 1\nvalue = 0.616", fillcolor="#fae9dc"] ;
380 -> 382 ;
383 [label="level <= 66.5\nsquared_error = 0.001\nsamples = 70\nvalue = 0.877", fillcolor="#fae6d8"] ;
379 -> 383 ;
384 [label="squared_error = -0.0\nsamples = 43\nvalue = 0.88", fillcolor="#fae6d8"] ;
383 -> 384 ;
385 [label="level <= 67.5\nsquared_error = 0.002\nsamples = 27\nvalue = 0.871", fillcolor="#fae6d8"] ;
383 -> 385 ;
386 [label="squared_error = 0.0\nsamples = 1\nvalue = 0.616", fillcolor="#fae9dc"] ;
385 -> 386 ;
387 [label="squared_error = -0.0\nsamples = 26\nvalue = 0.88", fillcolor="#fae6d8"] ;
385 -> 387 ;
388 [label="dist_to_cashier <= 1.5\nsquared_error = 0.032\nsamples = 147\nvalue = 1.056", fillcolor="#f9e4d5"] ;
368 -> 388 ;
389 [label="level <= 3.5\nsquared_error = 0.001\nsamples = 75\nvalue = 1.229", fillcolor="#f9e2d2"] ;
388 -> 389 ;
390 [label="level <= 2.5\nsquared_error = 0.017\nsamples = 2\nvalue = 1.1", fillcolor="#f9e4d4"] ;
389 -> 390 ;
391 [label="squared_error = 0.0\nsamples = 1\nvalue = 1.232", fillcolor="#f9e2d2"] ;
390 -> 391 ;
392 [label="squared_error = 0.0\nsamples = 1\nvalue = 0.968", fillcolor="#fae5d6"] ;
390 -> 392 ;
393 [label="level <= 35.0\nsquared_error = 0.0\nsamples = 73\nvalue = 1.232", fillcolor="#f9e2d2"] ;
389 -> 393 ;
394 [label="squared_error = -0.0\nsamples = 24\nvalue = 1.232", fillcolor="#f9e2d2"] ;
393 -> 394 ;
395 [label="level <= 37.0\nsquared_error = 0.0\nsamples = 49\nvalue = 1.232", fillcolor="#f9e2d2"] ;
393 -> 395 ;
396 [label="squared_error = 0.0\nsamples = 1\nvalue = 1.232", fillcolor="#f9e2d2"] ;
395 -> 396 ;
397 [label="level <= 38.5\nsquared_error = 0.0\nsamples = 48\nvalue = 1.232", fillcolor="#f9e2d2"] ;
395 -> 397 ;
398 [label="squared_error = 0.0\nsamples = 1\nvalue = 1.232", fillcolor="#f9e2d2"] ;
397 -> 398 ;
399 [label="level <= 39.5\nsquared_error = 0.0\nsamples = 47\nvalue = 1.232", fillcolor="#f9e2d2"] ;
397 -> 399 ;
400 [label="squared_error = 0.0\nsamples = 1\nvalue = 1.232", fillcolor="#f9e2d2"] ;
399 -> 400 ;
401 [label="level <= 40.5\nsquared_error = 0.0\nsamples = 46\nvalue = 1.232", fillcolor="#f9e2d2"] ;
399 -> 401 ;
402 [label="squared_error = 0.0\nsamples = 1\nvalue = 1.232", fillcolor="#f9e2d2"] ;
401 -> 402 ;
403 [label="level <= 41.5\nsquared_error = 0.0\nsamples = 45\nvalue = 1.232", fillcolor="#f9e2d2"] ;
401 -> 403 ;
404 [label="squared_error = 0.0\nsamples = 1\nvalue = 1.232", fillcolor="#f9e2d2"] ;
403 -> 404 ;
405 [label="level <= 42.5\nsquared_error = 0.0\nsamples = 44\nvalue = 1.232", fillcolor="#f9e2d2"] ;
403 -> 405 ;
406 [label="squared_error = 0.0\nsamples = 1\nvalue = 1.232", fillcolor="#f9e2d2"] ;
405 -> 406 ;
407 [label="level <= 60.0\nsquared_error = 0.0\nsamples = 43\nvalue = 1.232", fillcolor="#f9e2d2"] ;
405 -> 407 ;
408 [label="squared_error = 0.0\nsamples = 13\nvalue = 1.232", fillcolor="#f9e2d2"] ;
407 -> 408 ;
409 [label="level <= 63.5\nsquared_error = 0.0\nsamples = 30\nvalue = 1.232", fillcolor="#f9e2d2"] ;
407 -> 409 ;
410 [label="squared_error = -0.0\nsamples = 3\nvalue = 1.232", fillcolor="#f9e2d2"] ;
409 -> 410 ;
411 [label="level <= 64.5\nsquared_error = 0.0\nsamples = 27\nvalue = 1.232", fillcolor="#f9e2d2"] ;
409 -> 411 ;
412 [label="squared_error = 0.0\nsamples = 1\nvalue = 1.232", fillcolor="#f9e2d2"] ;
411 -> 412 ;
413 [label="squared_error = 0.0\nsamples = 26\nvalue = 1.232", fillcolor="#f9e2d2"] ;
411 -> 413 ;
414 [label="level <= 10.0\nsquared_error = 0.001\nsamples = 72\nvalue = 0.877", fillcolor="#fae6d8"] ;
388 -> 414 ;
415 [label="level <= 8.5\nsquared_error = 0.009\nsamples = 7\nvalue = 0.843", fillcolor="#fae6d8"] ;
414 -> 415 ;
416 [label="squared_error = 0.0\nsamples = 6\nvalue = 0.88", fillcolor="#fae6d8"] ;
415 -> 416 ;
417 [label="squared_error = -0.0\nsamples = 1\nvalue = 0.616", fillcolor="#fae9dc"] ;
415 -> 417 ;
418 [label="squared_error = -0.0\nsamples = 65\nvalue = 0.88", fillcolor="#fae6d8"] ;
414 -> 418 ;
419 [label="level <= 1.5\nsquared_error = 0.009\nsamples = 236\nvalue = -0.016", fillcolor="#fcefe7"] ;
311 -> 419 ;
420 [label="dist_to_cashier <= 0.5\nsquared_error = 0.148\nsamples = 3\nvalue = -0.513", fillcolor="#fdf5ef"] ;
419 -> 420 ;
421 [label="squared_error = 0.0\nsamples = 1\nvalue = 0.0", fillcolor="#fcefe6"] ;
420 -> 421 ;
422 [label="dist_to_cashier <= 1.5\nsquared_error = 0.024\nsamples = 2\nvalue = -0.77", fillcolor="#fdf7f3"] ;
420 -> 422 ;
423 [label="squared_error = 0.0\nsamples = 1\nvalue = -0.924", fillcolor="#fef9f6"] ;
422 -> 423 ;
424 [label="squared_error = 0.0\nsamples = 1\nvalue = -0.616", fillcolor="#fdf6f1"] ;
422 -> 424 ;
425 [label="level <= 95.5\nsquared_error = 0.004\nsamples = 233\nvalue = -0.01", fillcolor="#fcefe7"] ;
419 -> 425 ;
426 [label="level <= 11.5\nsquared_error = 0.004\nsamples = 226\nvalue = -0.008", fillcolor="#fcefe6"] ;
425 -> 426 ;
427 [label="level <= 10.5\nsquared_error = 0.02\nsamples = 19\nvalue = -0.046", fillcolor="#fcf0e7"] ;
426 -> 427 ;
428 [label="level <= 3.5\nsquared_error = 0.005\nsamples = 17\nvalue = -0.018", fillcolor="#fcf0e7"] ;
427 -> 428 ;
429 [label="level <= 2.5\nsquared_error = 0.015\nsamples = 5\nvalue = -0.062", fillcolor="#fcf0e7"] ;
428 -> 429 ;
430 [label="squared_error = 0.0\nsamples = 3\nvalue = 0.0", fillcolor="#fcefe6"] ;
429 -> 430 ;
431 [label="dist_to_cashier <= 0.5\nsquared_error = 0.024\nsamples = 2\nvalue = -0.154", fillcolor="#fcf1e9"] ;
429 -> 431 ;
432 [label="squared_error = 0.0\nsamples = 1\nvalue = -0.308", fillcolor="#fcf3eb"] ;
431 -> 432 ;
433 [label="squared_error = 0.0\nsamples = 1\nvalue = 0.0", fillcolor="#fcefe6"] ;
431 -> 433 ;
434 [label="squared_error = 0.0\nsamples = 12\nvalue = 0.0", fillcolor="#fcefe6"] ;
428 -> 434 ;
435 [label="dist_to_cashier <= 1.5\nsquared_error = 0.082\nsamples = 2\nvalue = -0.286", fillcolor="#fcf2eb"] ;
427 -> 435 ;
436 [label="squared_error = 0.0\nsamples = 1\nvalue = 0.0", fillcolor="#fcefe6"] ;
435 -> 436 ;
437 [label="squared_error = 0.0\nsamples = 1\nvalue = -0.572", fillcolor="#fdf5f0"] ;
435 -> 437 ;
438 [label="level <= 69.5\nsquared_error = 0.002\nsamples = 207\nvalue = -0.004", fillcolor="#fcefe6"] ;
426 -> 438 ;
439 [label="squared_error = 0.0\nsamples = 142\nvalue = 0.0", fillcolor="#fcefe6"] ;
438 -> 439 ;
440 [label="level <= 73.5\nsquared_error = 0.007\nsamples = 65\nvalue = -0.014", fillcolor="#fcefe7"] ;
438 -> 440 ;
441 [label="dist_to_cashier <= 0.5\nsquared_error = 0.044\nsamples = 8\nvalue = -0.11", fillcolor="#fcf0e8"] ;
440 -> 441 ;
442 [label="level <= 72.0\nsquared_error = 0.095\nsamples = 2\nvalue = -0.308", fillcolor="#fcf3eb"] ;
441 -> 442 ;
443 [label="squared_error = 0.0\nsamples = 1\nvalue = 0.0", fillcolor="#fcefe6"] ;
442 -> 443 ;
444 [label="squared_error = 0.0\nsamples = 1\nvalue = -0.616", fillcolor="#fdf6f1"] ;
442 -> 444 ;
445 [label="level <= 70.5\nsquared_error = 0.01\nsamples = 6\nvalue = -0.044", fillcolor="#fcf0e7"] ;
441 -> 445 ;
446 [label="squared_error = 0.0\nsamples = 1\nvalue = -0.264", fillcolor="#fcf2eb"] ;
445 -> 446 ;
447 [label="squared_error = 0.0\nsamples = 5\nvalue = 0.0", fillcolor="#fcefe6"] ;
445 -> 447 ;
448 [label="squared_error = 0.0\nsamples = 57\nvalue = 0.0", fillcolor="#fcefe6"] ;
440 -> 448 ;
449 [label="level <= 96.5\nsquared_error = 0.014\nsamples = 7\nvalue = -0.075", fillcolor="#fcf0e8"] ;
425 -> 449 ;
450 [label="squared_error = 0.0\nsamples = 2\nvalue = -0.264", fillcolor="#fcf2eb"] ;
449 -> 450 ;
451 [label="squared_error = 0.0\nsamples = 5\nvalue = 0.0", fillcolor="#fcefe6"] ;
449 -> 451 ;
452 [label="left_product_1_id <= -0.5\nsquared_error = 4.99\nsamples = 229\nvalue = 1.89", fillcolor="#f8dcc7"] ;
310 -> 452 ;
453 [label="right_product_4_count <= 38.0\nsquared_error = 0.043\nsamples = 158\nvalue = 0.416", fillcolor="#fbebe0"] ;
452 -> 453 ;
454 [label="level <= 3.5\nsquared_error = 0.01\nsamples = 78\nvalue = 0.597", fillcolor="#fae9dd"] ;
453 -> 454 ;
455 [label="squared_error = 0.0\nsamples = 1\nvalue = 0.0", fillcolor="#fcefe6"] ;
454 -> 455 ;
456 [label="level <= 9.5\nsquared_error = 0.006\nsamples = 77\nvalue = 0.605", fillcolor="#fae9dc"] ;
454 -> 456 ;
457 [label="level <= 8.0\nsquared_error = 0.011\nsamples = 5\nvalue = 0.563", fillcolor="#fbe9dd"] ;
456 -> 457 ;
458 [label="squared_error = 0.0\nsamples = 4\nvalue = 0.616", fillcolor="#fae9dc"] ;
457 -> 458 ;
459 [label="squared_error = 0.0\nsamples = 1\nvalue = 0.352", fillcolor="#fbece1"] ;
457 -> 459 ;
460 [label="level <= 66.5\nsquared_error = 0.005\nsamples = 72\nvalue = 0.608", fillcolor="#fae9dc"] ;
456 -> 460 ;
461 [label="squared_error = 0.0\nsamples = 46\nvalue = 0.616", fillcolor="#fae9dc"] ;
460 -> 461 ;
462 [label="level <= 67.5\nsquared_error = 0.014\nsamples = 26\nvalue = 0.592", fillcolor="#fae9dd"] ;
460 -> 462 ;
463 [label="squared_error = 0.0\nsamples = 1\nvalue = 0.0", fillcolor="#fcefe6"] ;
462 -> 463 ;
464 [label="squared_error = 0.0\nsamples = 25\nvalue = 0.616", fillcolor="#fae9dc"] ;
462 -> 464 ;
465 [label="level <= 3.5\nsquared_error = 0.011\nsamples = 80\nvalue = 0.239", fillcolor="#fbede2"] ;
453 -> 465 ;
466 [label="level <= 1.5\nsquared_error = 0.015\nsamples = 3\nvalue = 0.088", fillcolor="#fceee5"] ;
465 -> 466 ;
467 [label="squared_error = 0.0\nsamples = 1\nvalue = 0.0", fillcolor="#fcefe6"] ;
466 -> 467 ;
468 [label="level <= 2.5\nsquared_error = 0.017\nsamples = 2\nvalue = 0.132", fillcolor="#fbeee4"] ;
466 -> 468 ;
469 [label="squared_error = 0.0\nsamples = 1\nvalue = 0.264", fillcolor="#fbede2"] ;
468 -> 469 ;
470 [label="squared_error = 0.0\nsamples = 1\nvalue = 0.0", fillcolor="#fcefe6"] ;
468 -> 470 ;
471 [label="level <= 66.5\nsquared_error = 0.01\nsamples = 77\nvalue = 0.245", fillcolor="#fbede2"] ;
465 -> 471 ;
472 [label="level <= 9.5\nsquared_error = 0.001\nsamples = 52\nvalue = 0.259", fillcolor="#fbede2"] ;
471 -> 472 ;
473 [label="level <= 8.0\nsquared_error = 0.013\nsamples = 4\nvalue = 0.198", fillcolor="#fbede3"] ;
472 -> 473 ;
474 [label="squared_error = 0.0\nsamples = 3\nvalue = 0.264", fillcolor="#fbede2"] ;
473 -> 474 ;
475 [label="squared_error = 0.0\nsamples = 1\nvalue = 0.0", fillcolor="#fcefe6"] ;
473 -> 475 ;
476 [label="squared_error = -0.0\nsamples = 48\nvalue = 0.264", fillcolor="#fbede2"] ;
472 -> 476 ;
477 [label="level <= 68.0\nsquared_error = 0.028\nsamples = 25\nvalue = 0.215", fillcolor="#fbede3"] ;
471 -> 477 ;
478 [label="squared_error = 0.0\nsamples = 1\nvalue = -0.352", fillcolor="#fdf3ec"] ;
477 -> 478 ;
479 [label="level <= 73.5\nsquared_error = 0.015\nsamples = 24\nvalue = 0.238", fillcolor="#fbede2"] ;
477 -> 479 ;
480 [label="level <= 72.0\nsquared_error = 0.071\nsamples = 4\nvalue = 0.11", fillcolor="#fceee5"] ;
479 -> 480 ;
481 [label="squared_error = 0.0\nsamples = 3\nvalue = 0.264", fillcolor="#fbede2"] ;
480 -> 481 ;
482 [label="squared_error = -0.0\nsamples = 1\nvalue = -0.352", fillcolor="#fdf3ec"] ;
480 -> 482 ;
483 [label="squared_error = 0.0\nsamples = 20\nvalue = 0.264", fillcolor="#fbede2"] ;
479 -> 483 ;
484 [label="level <= 69.5\nsquared_error = 0.39\nsamples = 71\nvalue = 5.172", fillcolor="#f1b991"] ;
452 -> 484 ;
485 [label="level <= 9.5\nsquared_error = 0.01\nsamples = 51\nvalue = 5.24", fillcolor="#f0b890"] ;
484 -> 485 ;
486 [label="level <= 8.5\nsquared_error = 0.044\nsamples = 8\nvalue = 5.153", fillcolor="#f1b991"] ;
485 -> 486 ;
487 [label="level <= 4.5\nsquared_error = 0.009\nsamples = 7\nvalue = 5.225", fillcolor="#f0b990"] ;
486 -> 487 ;
488 [label="squared_error = 0.0\nsamples = 4\nvalue = 5.263", fillcolor="#f0b890"] ;
487 -> 488 ;
489 [label="level <= 6.0\nsquared_error = 0.015\nsamples = 3\nvalue = 5.175", fillcolor="#f1b991"] ;
487 -> 489 ;
490 [label="squared_error = 0.0\nsamples = 1\nvalue = 4.999", fillcolor="#f1bb94"] ;
489 -> 490 ;
491 [label="level <= 7.5\nsquared_error = 0.0\nsamples = 2\nvalue = 5.263", fillcolor="#f0b890"] ;
489 -> 491 ;
492 [label="squared_error = 0.0\nsamples = 1\nvalue = 5.263", fillcolor="#f0b890"] ;
491 -> 492 ;
493 [label="squared_error = 0.0\nsamples = 1\nvalue = 5.263", fillcolor="#f0b890"] ;
491 -> 493 ;
494 [label="squared_error = 0.0\nsamples = 1\nvalue = 4.647", fillcolor="#f2bf9a"] ;
486 -> 494 ;
495 [label="level <= 18.5\nsquared_error = 0.002\nsamples = 43\nvalue = 5.256", fillcolor="#f0b890"] ;
485 -> 495 ;
496 [label="level <= 17.5\nsquared_error = 0.012\nsamples = 7\nvalue = 5.219", fillcolor="#f0b990"] ;
495 -> 496 ;
497 [label="squared_error = 0.0\nsamples = 6\nvalue = 5.263", fillcolor="#f0b890"] ;
496 -> 497 ;
498 [label="squared_error = -0.0\nsamples = 1\nvalue = 4.955", fillcolor="#f1bb95"] ;
496 -> 498 ;
499 [label="squared_error = -0.0\nsamples = 36\nvalue = 5.263", fillcolor="#f0b890"] ;
495 -> 499 ;
500 [label="level <= 71.0\nsquared_error = 1.316\nsamples = 20\nvalue = 5.0", fillcolor="#f1bb94"] ;
484 -> 500 ;
501 [label="squared_error = 0.0\nsamples = 1\nvalue = 0.0", fillcolor="#fcefe6"] ;
500 -> 501 ;
502 [label="level <= 74.0\nsquared_error = 0.0\nsamples = 19\nvalue = 5.263", fillcolor="#f0b890"] ;
500 -> 502 ;
503 [label="squared_error = 0.0\nsamples = 2\nvalue = 5.263", fillcolor="#f0b890"] ;
502 -> 503 ;
504 [label="level <= 75.5\nsquared_error = 0.0\nsamples = 17\nvalue = 5.263", fillcolor="#f0b890"] ;
502 -> 504 ;
505 [label="squared_error = 0.0\nsamples = 1\nvalue = 5.263", fillcolor="#f0b890"] ;
504 -> 505 ;
506 [label="level <= 76.5\nsquared_error = 0.0\nsamples = 16\nvalue = 5.263", fillcolor="#f0b890"] ;
504 -> 506 ;
507 [label="squared_error = 0.0\nsamples = 1\nvalue = 5.263", fillcolor="#f0b890"] ;
506 -> 507 ;
508 [label="level <= 77.5\nsquared_error = 0.0\nsamples = 15\nvalue = 5.263", fillcolor="#f0b890"] ;
506 -> 508 ;
509 [label="squared_error = 0.0\nsamples = 1\nvalue = 5.263", fillcolor="#f0b890"] ;
508 -> 509 ;
510 [label="level <= 78.5\nsquared_error = 0.0\nsamples = 14\nvalue = 5.263", fillcolor="#f0b890"] ;
508 -> 510 ;
511 [label="squared_error = 0.0\nsamples = 1\nvalue = 5.263", fillcolor="#f0b890"] ;
510 -> 511 ;
512 [label="level <= 79.5\nsquared_error = 0.0\nsamples = 13\nvalue = 5.263", fillcolor="#f0b890"] ;
510 -> 512 ;
513 [label="squared_error = 0.0\nsamples = 1\nvalue = 5.263", fillcolor="#f0b890"] ;
512 -> 513 ;
514 [label="level <= 81.0\nsquared_error = 0.0\nsamples = 12\nvalue = 5.263", fillcolor="#f0b890"] ;
512 -> 514 ;
515 [label="squared_error = 0.0\nsamples = 1\nvalue = 5.263", fillcolor="#f0b890"] ;
514 -> 515 ;
516 [label="level <= 83.0\nsquared_error = 0.0\nsamples = 11\nvalue = 5.263", fillcolor="#f0b890"] ;
514 -> 516 ;
517 [label="squared_error = 0.0\nsamples = 1\nvalue = 5.263", fillcolor="#f0b890"] ;
516 -> 517 ;
518 [label="level <= 84.5\nsquared_error = 0.0\nsamples = 10\nvalue = 5.263", fillcolor="#f0b890"] ;
516 -> 518 ;
519 [label="squared_error = 0.0\nsamples = 1\nvalue = 5.263", fillcolor="#f0b890"] ;
518 -> 519 ;
520 [label="level <= 85.5\nsquared_error = 0.0\nsamples = 9\nvalue = 5.263", fillcolor="#f0b890"] ;
518 -> 520 ;
521 [label="squared_error = 0.0\nsamples = 1\nvalue = 5.263", fillcolor="#f0b890"] ;
520 -> 521 ;
522 [label="squared_error = 0.0\nsamples = 8\nvalue = 5.263", fillcolor="#f0b890"] ;
520 -> 522 ;
523 [label="left_product_4_count <= 65.0\nsquared_error = 0.155\nsamples = 4712\nvalue = 0.355", fillcolor="#fbece1"] ;
309 -> 523 ;
524 [label="dist_to_cashier <= 0.5\nsquared_error = 0.135\nsamples = 4085\nvalue = 0.321", fillcolor="#fbece1"] ;
523 -> 524 ;
525 [label="tile_down_right <= 1.5\nsquared_error = 0.093\nsamples = 1032\nvalue = 0.155", fillcolor="#fbeee4"] ;
524 -> 525 ;
526 [label="left_product_4_count <= 41.0\nsquared_error = 0.042\nsamples = 805\nvalue = 0.044", fillcolor="#fcefe6"] ;
525 -> 526 ;
527 [label="level <= 1.5\nsquared_error = 0.009\nsamples = 726\nvalue = -0.016", fillcolor="#fcefe7"] ;
526 -> 527 ;
528 [label="right_product_2_count <= 75.0\nsquared_error = 0.098\nsamples = 8\nvalue = -0.253", fillcolor="#fcf2eb"] ;
527 -> 528 ;
529 [label="right_product_3_count <= 26.5\nsquared_error = 0.047\nsamples = 7\nvalue = -0.163", fillcolor="#fcf1e9"] ;
528 -> 529 ;
530 [label="left_product_3_count <= 0.0\nsquared_error = 0.031\nsamples = 2\nvalue = -0.44", fillcolor="#fdf4ee"] ;
529 -> 530 ;
531 [label="squared_error = 0.0\nsamples = 1\nvalue = -0.264", fillcolor="#fcf2eb"] ;
530 -> 531 ;
532 [label="squared_error = 0.0\nsamples = 1\nvalue = -0.616", fillcolor="#fdf6f1"] ;
530 -> 532 ;
533 [label="dist_to_exit <= 13.5\nsquared_error = 0.011\nsamples = 5\nvalue = -0.053", fillcolor="#fcf0e7"] ;
529 -> 533 ;
534 [label="squared_error = 0.0\nsamples = 4\nvalue = 0.0", fillcolor="#fcefe6"] ;
533 -> 534 ;
535 [label="squared_error = 0.0\nsamples = 1\nvalue = -0.264", fillcolor="#fcf2eb"] ;
533 -> 535 ;
536 [label="squared_error = 0.0\nsamples = 1\nvalue = -0.88", fillcolor="#fef9f5"] ;
528 -> 536 ;
537 [label="level <= 12.5\nsquared_error = 0.007\nsamples = 718\nvalue = -0.014", fillcolor="#fcefe7"] ;
527 -> 537 ;
538 [label="dist_to_exit <= 12.5\nsquared_error = 0.033\nsamples = 87\nvalue = -0.06", fillcolor="#fcf0e7"] ;
537 -> 538 ;
539 [label="level <= 3.5\nsquared_error = 0.007\nsamples = 55\nvalue = -0.029", fillcolor="#fcf0e7"] ;
538 -> 539 ;
540 [label="squared_error = 0.0\nsamples = 10\nvalue = 0.0", fillcolor="#fcefe6"] ;
539 -> 540 ;
541 [label="level <= 6.5\nsquared_error = 0.008\nsamples = 45\nvalue = -0.035", fillcolor="#fcf0e7"] ;
539 -> 541 ;
542 [label="orientation_x <= 11.0\nsquared_error = 0.011\nsamples = 15\nvalue = -0.053", fillcolor="#fcf0e7"] ;
541 -> 542 ;
543 [label="squared_error = 0.0\nsamples = 8\nvalue = 0.0", fillcolor="#fcefe6"] ;
542 -> 543 ;
544 [label="dist_to_exit <= 11.5\nsquared_error = 0.017\nsamples = 7\nvalue = -0.113", fillcolor="#fcf1e8"] ;
542 -> 544 ;
545 [label="level <= 4.5\nsquared_error = 0.017\nsamples = 4\nvalue = -0.132", fillcolor="#fcf1e9"] ;
544 -> 545 ;
546 [label="squared_error = 0.0\nsamples = 1\nvalue = -0.264", fillcolor="#fcf2eb"] ;
545 -> 546 ;
547 [label="level <= 5.5\nsquared_error = 0.015\nsamples = 3\nvalue = -0.088", fillcolor="#fcf0e8"] ;
545 -> 547 ;
548 [label="left_product_4_id <= 4.5\nsquared_error = 0.017\nsamples = 2\nvalue = -0.132", fillcolor="#fcf1e9"] ;
547 -> 548 ;
549 [label="squared_error = 0.0\nsamples = 1\nvalue = 0.0", fillcolor="#fcefe6"] ;
548 -> 549 ;
550 [label="squared_error = 0.0\nsamples = 1\nvalue = -0.264", fillcolor="#fcf2eb"] ;
548 -> 550 ;
551 [label="squared_error = 0.0\nsamples = 1\nvalue = 0.0", fillcolor="#fcefe6"] ;
547 -> 551 ;
552 [label="level <= 5.5\nsquared_error = 0.015\nsamples = 3\nvalue = -0.088", fillcolor="#fcf0e8"] ;
544 -> 552 ;
553 [label="squared_error = 0.0\nsamples = 2\nvalue = 0.0", fillcolor="#fcefe6"] ;
552 -> 553 ;
554 [label="squared_error = 0.0\nsamples = 1\nvalue = -0.264", fillcolor="#fcf2eb"] ;
552 -> 554 ;
555 [label="orientation_x <= 11.0\nsquared_error = 0.006\nsamples = 30\nvalue = -0.026", fillcolor="#fcf0e7"] ;
541 -> 555 ;
556 [label="level <= 8.5\nsquared_error = 0.012\nsamples = 14\nvalue = -0.057", fillcolor="#fcf0e7"] ;
555 -> 556 ;
557 [label="squared_error = 0.0\nsamples = 4\nvalue = 0.0", fillcolor="#fcefe6"] ;
556 -> 557 ;
558 [label="level <= 11.5\nsquared_error = 0.015\nsamples = 10\nvalue = -0.079", fillcolor="#fcf0e8"] ;
556 -> 558 ;
559 [label="right_product_3_count <= 19.5\nsquared_error = 0.016\nsamples = 8\nvalue = -0.099", fillcolor="#fcf0e8"] ;
558 -> 559 ;
560 [label="level <= 10.5\nsquared_error = 0.017\nsamples = 2\nvalue = -0.132", fillcolor="#fcf1e9"] ;
559 -> 560 ;
561 [label="squared_error = 0.0\nsamples = 1\nvalue = 0.0", fillcolor="#fcefe6"] ;
560 -> 561 ;
562 [label="squared_error = 0.0\nsamples = 1\nvalue = -0.264", fillcolor="#fcf2eb"] ;
560 -> 562 ;
563 [label="level <= 10.5\nsquared_error = 0.015\nsamples = 6\nvalue = -0.088", fillcolor="#fcf0e8"] ;
559 -> 563 ;
564 [label="right_product_2_count <= 27.5\nsquared_error = 0.017\nsamples = 4\nvalue = -0.132", fillcolor="#fcf1e9"] ;
563 -> 564 ;
565 [label="level <= 9.5\nsquared_error = 0.017\nsamples = 2\nvalue = -0.132", fillcolor="#fcf1e9"] ;
564 -> 565 ;
566 [label="squared_error = 0.0\nsamples = 1\nvalue = 0.0", fillcolor="#fcefe6"] ;
565 -> 566 ;
567 [label="squared_error = 0.0\nsamples = 1\nvalue = -0.264", fillcolor="#fcf2eb"] ;
565 -> 567 ;
568 [label="level <= 9.5\nsquared_error = 0.017\nsamples = 2\nvalue = -0.132", fillcolor="#fcf1e9"] ;
564 -> 568 ;
569 [label="squared_error = 0.0\nsamples = 1\nvalue = -0.264", fillcolor="#fcf2eb"] ;
568 -> 569 ;
570 [label="squared_error = 0.0\nsamples = 1\nvalue = 0.0", fillcolor="#fcefe6"] ;
568 -> 570 ;
571 [label="squared_error = 0.0\nsamples = 2\nvalue = 0.0", fillcolor="#fcefe6"] ;
563 -> 571 ;
572 [label="squared_error = 0.0\nsamples = 2\nvalue = 0.0", fillcolor="#fcefe6"] ;
558 -> 572 ;
573 [label="squared_error = 0.0\nsamples = 16\nvalue = 0.0", fillcolor="#fcefe6"] ;
555 -> 573 ;
574 [label="level <= 3.5\nsquared_error = 0.075\nsamples = 32\nvalue = -0.113", fillcolor="#fcf0e8"] ;
538 -> 574 ;
575 [label="squared_error = 0.0\nsamples = 6\nvalue = 0.0", fillcolor="#fcefe6"] ;
574 -> 575 ;
576 [label="level <= 4.5\nsquared_error = 0.088\nsamples = 26\nvalue = -0.139", fillcolor="#fcf1e9"] ;
574 -> 576 ;
577 [label="tile_up_right <= 1.5\nsquared_error = 0.281\nsamples = 3\nvalue = -0.499", fillcolor="#fdf5ef"] ;
576 -> 577 ;
578 [label="squared_error = 0.0\nsamples = 1\nvalue = -1.232", fillcolor="#fefcfb"] ;
577 -> 578 ;
579 [label="dist_to_exit <= 13.5\nsquared_error = 0.017\nsamples = 2\nvalue = -0.132", fillcolor="#fcf1e9"] ;
577 -> 579 ;
580 [label="squared_error = 0.0\nsamples = 1\nvalue = 0.0", fillcolor="#fcefe6"] ;
579 -> 580 ;
581 [label="squared_error = 0.0\nsamples = 1\nvalue = -0.264", fillcolor="#fcf2eb"] ;
579 -> 581 ;
582 [label="level <= 8.5\nsquared_error = 0.044\nsamples = 23\nvalue = -0.092", fillcolor="#fcf0e8"] ;
576 -> 582 ;
583 [label="level <= 5.5\nsquared_error = 0.005\nsamples = 12\nvalue = -0.022", fillcolor="#fcf0e7"] ;
582 -> 583 ;
584 [label="right_product_4_count <= 67.5\nsquared_error = 0.015\nsamples = 3\nvalue = -0.088", fillcolor="#fcf0e8"] ;
583 -> 584 ;
585 [label="squared_error = 0.0\nsamples = 2\nvalue = 0.0", fillcolor="#fcefe6"] ;
584 -> 585 ;
586 [label="squared_error = 0.0\nsamples = 1\nvalue = -0.264", fillcolor="#fcf2eb"] ;
584 -> 586 ;
587 [label="squared_error = 0.0\nsamples = 9\nvalue = 0.0", fillcolor="#fcefe6"] ;
583 -> 587 ;
588 [label="left_product_1_id <= 0.0\nsquared_error = 0.075\nsamples = 11\nvalue = -0.168", fillcolor="#fcf1e9"] ;
582 -> 588 ;
589 [label="level <= 11.5\nsquared_error = 0.093\nsamples = 7\nvalue = -0.264", fillcolor="#fcf2eb"] ;
588 -> 589 ;
590 [label="level <= 10.5\nsquared_error = 0.084\nsamples = 6\nvalue = -0.205", fillcolor="#fcf1ea"] ;
589 -> 590 ;
591 [label="right_product_2_count <= 74.0\nsquared_error = 0.095\nsamples = 4\nvalue = -0.308", fillcolor="#fcf3eb"] ;
590 -> 591 ;
592 [label="level <= 9.5\nsquared_error = 0.095\nsamples = 2\nvalue = -0.308", fillcolor="#fcf3eb"] ;
591 -> 592 ;
593 [label="squared_error = 0.0\nsamples = 1\nvalue = -0.616", fillcolor="#fdf6f1"] ;
592 -> 593 ;
594 [label="squared_error = 0.0\nsamples = 1\nvalue = 0.0", fillcolor="#fcefe6"] ;
592 -> 594 ;
595 [label="level <= 9.5\nsquared_error = 0.095\nsamples = 2\nvalue = -0.308", fillcolor="#fcf3eb"] ;
591 -> 595 ;
596 [label="squared_error = 0.0\nsamples = 1\nvalue = 0.0", fillcolor="#fcefe6"] ;
595 -> 596 ;
597 [label="squared_error = 0.0\nsamples = 1\nvalue = -0.616", fillcolor="#fdf6f1"] ;
595 -> 597 ;
598 [label="squared_error = 0.0\nsamples = 2\nvalue = 0.0", fillcolor="#fcefe6"] ;
590 -> 598 ;
599 [label="squared_error = 0.0\nsamples = 1\nvalue = -0.616", fillcolor="#fdf6f1"] ;
589 -> 599 ;
600 [label="squared_error = 0.0\nsamples = 4\nvalue = 0.0", fillcolor="#fcefe6"] ;
588 -> 600 ;
601 [label="right_product_3_count <= 26.5\nsquared_error = 0.003\nsamples = 631\nvalue = -0.007", fillcolor="#fcefe6"] ;
537 -> 601 ;
602 [label="level <= 86.5\nsquared_error = 0.007\nsamples = 145\nvalue = -0.016", fillcolor="#fcefe7"] ;
601 -> 602 ;
603 [label="level <= 20.5\nsquared_error = 0.005\nsamples = 125\nvalue = -0.011", fillcolor="#fcefe7"] ;
602 -> 603 ;
604 [label="level <= 17.5\nsquared_error = 0.01\nsamples = 12\nvalue = -0.044", fillcolor="#fcf0e7"] ;
603 -> 604 ;
605 [label="squared_error = 0.0\nsamples = 7\nvalue = 0.0", fillcolor="#fcefe6"] ;
604 -> 605 ;
606 [label="tile_up_right <= 1.5\nsquared_error = 0.017\nsamples = 5\nvalue = -0.106", fillcolor="#fcf0e8"] ;
604 -> 606 ;
607 [label="level <= 19.0\nsquared_error = 0.017\nsamples = 2\nvalue = -0.132", fillcolor="#fcf1e9"] ;
606 -> 607 ;
608 [label="squared_error = 0.0\nsamples = 1\nvalue = -0.264", fillcolor="#fcf2eb"] ;
607 -> 608 ;
609 [label="squared_error = 0.0\nsamples = 1\nvalue = 0.0", fillcolor="#fcefe6"] ;
607 -> 609 ;
610 [label="level <= 19.5\nsquared_error = 0.015\nsamples = 3\nvalue = -0.088", fillcolor="#fcf0e8"] ;
606 -> 610 ;
611 [label="squared_error = 0.0\nsamples = 2\nvalue = 0.0", fillcolor="#fcefe6"] ;
610 -> 611 ;
612 [label="squared_error = 0.0\nsamples = 1\nvalue = -0.264", fillcolor="#fcf2eb"] ;
610 -> 612 ;
613 [label="level <= 63.5\nsquared_error = 0.004\nsamples = 113\nvalue = -0.008", fillcolor="#fcefe6"] ;
603 -> 613 ;
614 [label="level <= 41.5\nsquared_error = 0.001\nsamples = 73\nvalue = -0.004", fillcolor="#fcefe6"] ;
613 -> 614 ;
615 [label="level <= 40.5\nsquared_error = 0.002\nsamples = 35\nvalue = -0.008", fillcolor="#fcefe6"] ;
614 -> 615 ;
616 [label="squared_error = 0.0\nsamples = 33\nvalue = 0.0", fillcolor="#fcefe6"] ;
615 -> 616 ;
617 [label="right_product_3_count <= 12.5\nsquared_error = 0.017\nsamples = 2\nvalue = -0.132", fillcolor="#fcf1e9"] ;
615 -> 617 ;
618 [label="squared_error = 0.0\nsamples = 1\nvalue = 0.0", fillcolor="#fcefe6"] ;
617 -> 618 ;
619 [label="squared_error = 0.0\nsamples = 1\nvalue = -0.264", fillcolor="#fcf2eb"] ;
617 -> 619 ;
620 [label="squared_error = 0.0\nsamples = 38\nvalue = 0.0", fillcolor="#fcefe6"] ;
614 -> 620 ;
621 [label="level <= 64.5\nsquared_error = 0.009\nsamples = 40\nvalue = -0.015", fillcolor="#fcefe7"] ;
613 -> 621 ;
622 [label="left_product_4_count <= 9.5\nsquared_error = 0.095\nsamples = 2\nvalue = -0.308", fillcolor="#fcf3eb"] ;
621 -> 622 ;
623 [label="squared_error = 0.0\nsamples = 1\nvalue = -0.616", fillcolor="#fdf6f1"] ;
622 -> 623 ;
624 [label="squared_error = 0.0\nsamples = 1\nvalue = 0.0", fillcolor="#fcefe6"] ;
622 -> 624 ;
625 [label="squared_error = 0.0\nsamples = 38\nvalue = 0.0", fillcolor="#fcefe6"] ;
621 -> 625 ;
626 [label="level <= 87.5\nsquared_error = 0.022\nsamples = 20\nvalue = -0.046", fillcolor="#fcf0e7"] ;
602 -> 626 ;
627 [label="squared_error = 0.0\nsamples = 1\nvalue = -0.616", fillcolor="#fdf6f1"] ;
626 -> 627 ;
628 [label="level <= 95.5\nsquared_error = 0.005\nsamples = 19\nvalue = -0.016", fillcolor="#fcefe7"] ;
626 -> 628 ;
629 [label="squared_error = 0.0\nsamples = 13\nvalue = 0.0", fillcolor="#fcefe6"] ;
628 -> 629 ;
630 [label="level <= 96.5\nsquared_error = 0.013\nsamples = 6\nvalue = -0.051", fillcolor="#fcf0e7"] ;
628 -> 630 ;
631 [label="orientation_y <= 0.5\nsquared_error = 0.024\nsamples = 2\nvalue = -0.154", fillcolor="#fcf1e9"] ;
630 -> 631 ;
632 [label="squared_error = 0.0\nsamples = 1\nvalue = 0.0", fillcolor="#fcefe6"] ;
631 -> 632 ;
633 [label="squared_error = 0.0\nsamples = 1\nvalue = -0.308", fillcolor="#fcf3eb"] ;
631 -> 633 ;
634 [label="squared_error = 0.0\nsamples = 4\nvalue = 0.0", fillcolor="#fcefe6"] ;
630 -> 634 ;
635 [label="level <= 23.5\nsquared_error = 0.002\nsamples = 486\nvalue = -0.005", fillcolor="#fcefe6"] ;
601 -> 635 ;
636 [label="level <= 22.5\nsquared_error = 0.007\nsamples = 62\nvalue = -0.014", fillcolor="#fcefe7"] ;
635 -> 636 ;
637 [label="left_product_2_count <= 35.5\nsquared_error = 0.001\nsamples = 56\nvalue = -0.005", fillcolor="#fcefe6"] ;
636 -> 637 ;
638 [label="squared_error = 0.0\nsamples = 47\nvalue = 0.0", fillcolor="#fcefe6"] ;
637 -> 638 ;
639 [label="level <= 19.5\nsquared_error = 0.007\nsamples = 9\nvalue = -0.029", fillcolor="#fcf0e7"] ;
637 -> 639 ;
640 [label="squared_error = 0.0\nsamples = 6\nvalue = 0.0", fillcolor="#fcefe6"] ;
639 -> 640 ;
641 [label="level <= 20.5\nsquared_error = 0.015\nsamples = 3\nvalue = -0.088", fillcolor="#fcf0e8"] ;
639 -> 641 ;
642 [label="squared_error = 0.0\nsamples = 1\nvalue = -0.264", fillcolor="#fcf2eb"] ;
641 -> 642 ;
643 [label="squared_error = 0.0\nsamples = 2\nvalue = 0.0", fillcolor="#fcefe6"] ;
641 -> 643 ;
644 [label="right_product_3_count <= 33.5\nsquared_error = 0.053\nsamples = 6\nvalue = -0.103", fillcolor="#fcf0e8"] ;
636 -> 644 ;
645 [label="squared_error = 0.0\nsamples = 1\nvalue = -0.616", fillcolor="#fdf6f1"] ;
644 -> 645 ;
646 [label="squared_error = 0.0\nsamples = 5\nvalue = 0.0", fillcolor="#fcefe6"] ;
644 -> 646 ;
647 [label="right_product_3_count <= 49.0\nsquared_error = 0.001\nsamples = 424\nvalue = -0.003", fillcolor="#fcefe6"] ;
635 -> 647 ;
648 [label="squared_error = 0.0\nsamples = 242\nvalue = 0.0", fillcolor="#fcefe6"] ;
647 -> 648 ;
649 [label="level <= 89.5\nsquared_error = 0.003\nsamples = 182\nvalue = -0.008", fillcolor="#fcefe6"] ;
647 -> 649 ;
650 [label="level <= 48.0\nsquared_error = 0.003\nsamples = 162\nvalue = -0.005", fillcolor="#fcefe6"] ;
649 -> 650 ;
651 [label="level <= 46.5\nsquared_error = 0.007\nsamples = 60\nvalue = -0.015", fillcolor="#fcefe7"] ;
650 -> 651 ;
652 [label="level <= 41.5\nsquared_error = 0.001\nsamples = 57\nvalue = -0.005", fillcolor="#fcefe6"] ;
651 -> 652 ;
653 [label="squared_error = 0.0\nsamples = 45\nvalue = 0.0", fillcolor="#fcefe6"] ;
652 -> 653 ;
654 [label="left_product_1_count <= 4.0\nsquared_error = 0.005\nsamples = 12\nvalue = -0.022", fillcolor="#fcf0e7"] ;
652 -> 654 ;
655 [label="squared_error = 0.0\nsamples = 9\nvalue = 0.0", fillcolor="#fcefe6"] ;
654 -> 655 ;
656 [label="level <= 43.5\nsquared_error = 0.015\nsamples = 3\nvalue = -0.088", fillcolor="#fcf0e8"] ;
654 -> 656 ;
657 [label="squared_error = 0.0\nsamples = 1\nvalue = -0.264", fillcolor="#fcf2eb"] ;
656 -> 657 ;
658 [label="squared_error = 0.0\nsamples = 2\nvalue = 0.0", fillcolor="#fcefe6"] ;
656 -> 658 ;
659 [label="orientation_x <= 9.0\nsquared_error = 0.084\nsamples = 3\nvalue = -0.205", fillcolor="#fcf1ea"] ;
651 -> 659 ;
660 [label="squared_error = 0.0\nsamples = 1\nvalue = -0.616", fillcolor="#fdf6f1"] ;
659 -> 660 ;
661 [label="squared_error = 0.0\nsamples = 2\nvalue = 0.0", fillcolor="#fcefe6"] ;
659 -> 661 ;
662 [label="squared_error = 0.0\nsamples = 102\nvalue = 0.0", fillcolor="#fcefe6"] ;
650 -> 662 ;
663 [label="right_product_1_count <= 47.0\nsquared_error = 0.006\nsamples = 20\nvalue = -0.026", fillcolor="#fcf0e7"] ;
649 -> 663 ;
664 [label="squared_error = 0.0\nsamples = 14\nvalue = 0.0", fillcolor="#fcefe6"] ;
663 -> 664 ;
665 [label="level <= 93.0\nsquared_error = 0.015\nsamples = 6\nvalue = -0.088", fillcolor="#fcf0e8"] ;
663 -> 665 ;
666 [label="level <= 90.5\nsquared_error = 0.015\nsamples = 3\nvalue = -0.176", fillcolor="#fcf1e9"] ;
665 -> 666 ;
667 [label="squared_error = 0.0\nsamples = 1\nvalue = -0.264", fillcolor="#fcf2eb"] ;
666 -> 667 ;
668 [label="level <= 91.5\nsquared_error = 0.017\nsamples = 2\nvalue = -0.132", fillcolor="#fcf1e9"] ;
666 -> 668 ;
669 [label="squared_error = 0.0\nsamples = 1\nvalue = 0.0", fillcolor="#fcefe6"] ;
668 -> 669 ;
670 [label="squared_error = 0.0\nsamples = 1\nvalue = -0.264", fillcolor="#fcf2eb"] ;
668 -> 670 ;
671 [label="squared_error = 0.0\nsamples = 3\nvalue = 0.0", fillcolor="#fcefe6"] ;
665 -> 671 ;
672 [label="level <= 1.5\nsquared_error = 0.011\nsamples = 79\nvalue = 0.594", fillcolor="#fae9dd"] ;
526 -> 672 ;
673 [label="squared_error = 0.0\nsamples = 1\nvalue = 0.0", fillcolor="#fcefe6"] ;
672 -> 673 ;
674 [label="level <= 92.5\nsquared_error = 0.006\nsamples = 78\nvalue = 0.602", fillcolor="#fae9dc"] ;
672 -> 674 ;
675 [label="level <= 32.0\nsquared_error = 0.001\nsamples = 72\nvalue = 0.613", fillcolor="#fae9dc"] ;
674 -> 675 ;
676 [label="level <= 29.5\nsquared_error = 0.003\nsamples = 23\nvalue = 0.605", fillcolor="#fae9dc"] ;
675 -> 676 ;
677 [label="squared_error = -0.0\nsamples = 22\nvalue = 0.616", fillcolor="#fae9dc"] ;
676 -> 677 ;
678 [label="squared_error = -0.0\nsamples = 1\nvalue = 0.352", fillcolor="#fbece1"] ;
676 -> 678 ;
679 [label="level <= 34.5\nsquared_error = 0.0\nsamples = 49\nvalue = 0.616", fillcolor="#fae9dc"] ;
675 -> 679 ;
680 [label="squared_error = 0.0\nsamples = 1\nvalue = 0.616", fillcolor="#fae9dc"] ;
679 -> 680 ;
681 [label="level <= 35.5\nsquared_error = 0.0\nsamples = 48\nvalue = 0.616", fillcolor="#fae9dc"] ;
679 -> 681 ;
682 [label="squared_error = 0.0\nsamples = 1\nvalue = 0.616", fillcolor="#fae9dc"] ;
681 -> 682 ;
683 [label="level <= 36.5\nsquared_error = 0.0\nsamples = 47\nvalue = 0.616", fillcolor="#fae9dc"] ;
681 -> 683 ;
684 [label="squared_error = 0.0\nsamples = 1\nvalue = 0.616", fillcolor="#fae9dc"] ;
683 -> 684 ;
685 [label="squared_error = 0.0\nsamples = 46\nvalue = 0.616", fillcolor="#fae9dc"] ;
683 -> 685 ;
686 [label="level <= 93.5\nsquared_error = 0.053\nsamples = 6\nvalue = 0.469", fillcolor="#fbeadf"] ;
674 -> 686 ;
687 [label="squared_error = 0.0\nsamples = 1\nvalue = 0.0", fillcolor="#fcefe6"] ;
686 -> 687 ;
688 [label="level <= 96.5\nsquared_error = 0.011\nsamples = 5\nvalue = 0.563", fillcolor="#fbe9dd"] ;
686 -> 688 ;
689 [label="squared_error = -0.0\nsamples = 3\nvalue = 0.616", fillcolor="#fae9dc"] ;
688 -> 689 ;
690 [label="level <= 97.5\nsquared_error = 0.017\nsamples = 2\nvalue = 0.484", fillcolor="#fbeade"] ;
688 -> 690 ;
691 [label="squared_error = 0.0\nsamples = 1\nvalue = 0.352", fillcolor="#fbece1"] ;
690 -> 691 ;
692 [label="squared_error = -0.0\nsamples = 1\nvalue = 0.616", fillcolor="#fae9dc"] ;
690 -> 692 ;
693 [label="dist_to_exit <= 10.0\nsquared_error = 0.075\nsamples = 227\nvalue = 0.55", fillcolor="#fbeadd"] ;
525 -> 693 ;
694 [label="right_product_2_count <= 50.5\nsquared_error = 0.031\nsamples = 146\nvalue = 0.719", fillcolor="#fae8db"] ;
693 -> 694 ;
695 [label="level <= 2.5\nsquared_error = 0.017\nsamples = 71\nvalue = 0.852", fillcolor="#fae6d8"] ;
694 -> 695 ;
696 [label="squared_error = 0.0\nsamples = 1\nvalue = 0.0", fillcolor="#fcefe6"] ;
695 -> 696 ;
697 [label="level <= 66.0\nsquared_error = 0.007\nsamples = 70\nvalue = 0.864", fillcolor="#fae6d8"] ;
695 -> 697 ;
698 [label="level <= 13.0\nsquared_error = 0.002\nsamples = 45\nvalue = 0.874", fillcolor="#fae6d8"] ;
697 -> 698 ;
699 [label="level <= 10.5\nsquared_error = 0.009\nsamples = 7\nvalue = 0.843", fillcolor="#fae6d8"] ;
698 -> 699 ;
700 [label="squared_error = 0.0\nsamples = 6\nvalue = 0.88", fillcolor="#fae6d8"] ;
699 -> 700 ;
701 [label="squared_error = -0.0\nsamples = 1\nvalue = 0.616", fillcolor="#fae9dc"] ;
699 -> 701 ;
702 [label="squared_error = -0.0\nsamples = 38\nvalue = 0.88", fillcolor="#fae6d8"] ;
698 -> 702 ;
703 [label="level <= 69.0\nsquared_error = 0.017\nsamples = 25\nvalue = 0.845", fillcolor="#fae6d8"] ;
697 -> 703 ;
704 [label="squared_error = 0.0\nsamples = 1\nvalue = 0.616", fillcolor="#fae9dc"] ;
703 -> 704 ;
705 [label="level <= 82.5\nsquared_error = 0.015\nsamples = 24\nvalue = 0.855", fillcolor="#fae6d8"] ;
703 -> 705 ;
706 [label="level <= 81.5\nsquared_error = 0.034\nsamples = 10\nvalue = 0.819", fillcolor="#fae7d9"] ;
705 -> 706 ;
707 [label="squared_error = -0.0\nsamples = 9\nvalue = 0.88", fillcolor="#fae6d8"] ;
706 -> 707 ;
708 [label="squared_error = 0.0\nsamples = 1\nvalue = 0.264", fillcolor="#fbede2"] ;
706 -> 708 ;
709 [label="squared_error = 0.0\nsamples = 14\nvalue = 0.88", fillcolor="#fae6d8"] ;
705 -> 709 ;
710 [label="level <= 1.5\nsquared_error = 0.011\nsamples = 75\nvalue = 0.593", fillcolor="#fae9dd"] ;
694 -> 710 ;
711 [label="squared_error = 0.0\nsamples = 1\nvalue = 0.0", fillcolor="#fcefe6"] ;
710 -> 711 ;
712 [label="level <= 81.5\nsquared_error = 0.007\nsamples = 74\nvalue = 0.601", fillcolor="#fae9dc"] ;
710 -> 712 ;
713 [label="level <= 39.5\nsquared_error = 0.001\nsamples = 60\nvalue = 0.612", fillcolor="#fae9dc"] ;
712 -> 713 ;
714 [label="level <= 38.5\nsquared_error = 0.003\nsamples = 26\nvalue = 0.606", fillcolor="#fae9dc"] ;
713 -> 714 ;
715 [label="squared_error = 0.0\nsamples = 25\nvalue = 0.616", fillcolor="#fae9dc"] ;
714 -> 715 ;
716 [label="squared_error = -0.0\nsamples = 1\nvalue = 0.352", fillcolor="#fbece1"] ;
714 -> 716 ;
717 [label="level <= 41.5\nsquared_error = 0.0\nsamples = 34\nvalue = 0.616", fillcolor="#fae9dc"] ;
713 -> 717 ;
718 [label="squared_error = 0.0\nsamples = 1\nvalue = 0.616", fillcolor="#fae9dc"] ;
717 -> 718 ;
719 [label="squared_error = 0.0\nsamples = 33\nvalue = 0.616", fillcolor="#fae9dc"] ;
717 -> 719 ;
720 [label="level <= 83.0\nsquared_error = 0.028\nsamples = 14\nvalue = 0.553", fillcolor="#fbeadd"] ;
712 -> 720 ;
721 [label="squared_error = 0.0\nsamples = 1\nvalue = 0.0", fillcolor="#fcefe6"] ;
720 -> 721 ;
722 [label="level <= 90.0\nsquared_error = 0.005\nsamples = 13\nvalue = 0.596", fillcolor="#fae9dd"] ;
720 -> 722 ;
723 [label="level <= 88.5\nsquared_error = 0.01\nsamples = 6\nvalue = 0.572", fillcolor="#fbe9dd"] ;
722 -> 723 ;
724 [label="squared_error = 0.0\nsamples = 5\nvalue = 0.616", fillcolor="#fae9dc"] ;
723 -> 724 ;
725 [label="squared_error = -0.0\nsamples = 1\nvalue = 0.352", fillcolor="#fbece1"] ;
723 -> 725 ;
726 [label="squared_error = 0.0\nsamples = 7\nvalue = 0.616", fillcolor="#fae9dc"] ;
722 -> 726 ;
727 [label="level <= 1.5\nsquared_error = 0.011\nsamples = 81\nvalue = 0.247", fillcolor="#fbede2"] ;
693 -> 727 ;
728 [label="squared_error = 0.0\nsamples = 1\nvalue = -0.616", fillcolor="#fdf6f1"] ;
727 -> 728 ;
729 [label="level <= 43.0\nsquared_error = 0.002\nsamples = 80\nvalue = 0.257", fillcolor="#fbede2"] ;
727 -> 729 ;
730 [label="level <= 41.5\nsquared_error = 0.004\nsamples = 32\nvalue = 0.248", fillcolor="#fbede2"] ;
729 -> 730 ;
731 [label="level <= 30.0\nsquared_error = 0.002\nsamples = 31\nvalue = 0.256", fillcolor="#fbede2"] ;
730 -> 731 ;
732 [label="squared_error = 0.0\nsamples = 22\nvalue = 0.264", fillcolor="#fbede2"] ;
731 -> 732 ;
733 [label="level <= 31.5\nsquared_error = 0.007\nsamples = 9\nvalue = 0.235", fillcolor="#fbede2"] ;
731 -> 733 ;
734 [label="squared_error = 0.0\nsamples = 1\nvalue = 0.0", fillcolor="#fcefe6"] ;
733 -> 734 ;
735 [label="squared_error = 0.0\nsamples = 8\nvalue = 0.264", fillcolor="#fbede2"] ;
733 -> 735 ;
736 [label="squared_error = 0.0\nsamples = 1\nvalue = 0.0", fillcolor="#fcefe6"] ;
730 -> 736 ;
737 [label="squared_error = 0.0\nsamples = 48\nvalue = 0.264", fillcolor="#fbede2"] ;
729 -> 737 ;
738 [label="orientation_x <= 11.0\nsquared_error = 0.136\nsamples = 3053\nvalue = 0.378", fillcolor="#fbebe0"] ;
524 -> 738 ;
739 [label="dist_to_cashier <= 1.5\nsquared_error = 0.085\nsamples = 695\nvalue = 0.578", fillcolor="#fbe9dd"] ;
738 -> 739 ;
740 [label="right_product_4_count <= 66.0\nsquared_error = 0.028\nsamples = 227\nvalue = 0.767", fillcolor="#fae7da"] ;
739 -> 740 ;
741 [label="level <= 1.5\nsquared_error = 0.011\nsamples = 145\nvalue = 0.864", fillcolor="#fae6d8"] ;
740 -> 741 ;
742 [label="orientation_x <= 7.0\nsquared_error = 0.194\nsamples = 2\nvalue = 0.44", fillcolor="#fbebdf"] ;
741 -> 742 ;
743 [label="squared_error = 0.0\nsamples = 1\nvalue = 0.88", fillcolor="#fae6d8"] ;
742 -> 743 ;
744 [label="squared_error = 0.0\nsamples = 1\nvalue = 0.0", fillcolor="#fcefe6"] ;
742 -> 744 ;
745 [label="level <= 88.5\nsquared_error = 0.006\nsamples = 143\nvalue = 0.87", fillcolor="#fae6d8"] ;
741 -> 745 ;
746 [label="level <= 9.5\nsquared_error = 0.001\nsamples = 126\nvalue = 0.876", fillcolor="#fae6d8"] ;
745 -> 746 ;
747 [label="level <= 8.5\nsquared_error = 0.005\nsamples = 12\nvalue = 0.858", fillcolor="#fae6d8"] ;
746 -> 747 ;
748 [label="squared_error = -0.0\nsamples = 10\nvalue = 0.88", fillcolor="#fae6d8"] ;
747 -> 748 ;
749 [label="right_product_4_count <= 44.0\nsquared_error = 0.017\nsamples = 2\nvalue = 0.748", fillcolor="#fae7da"] ;
747 -> 749 ;
750 [label="squared_error = 0.0\nsamples = 1\nvalue = 0.88", fillcolor="#fae6d8"] ;
749 -> 750 ;
751 [label="squared_error = 0.0\nsamples = 1\nvalue = 0.616", fillcolor="#fae9dc"] ;
749 -> 751 ;
752 [label="level <= 34.5\nsquared_error = 0.001\nsamples = 114\nvalue = 0.878", fillcolor="#fae6d8"] ;
746 -> 752 ;
753 [label="level <= 33.5\nsquared_error = 0.002\nsamples = 33\nvalue = 0.872", fillcolor="#fae6d8"] ;
752 -> 753 ;
754 [label="squared_error = -0.0\nsamples = 31\nvalue = 0.88", fillcolor="#fae6d8"] ;
753 -> 754 ;
755 [label="dist_to_exit <= 7.0\nsquared_error = 0.017\nsamples = 2\nvalue = 0.748", fillcolor="#fae7da"] ;
753 -> 755 ;
756 [label="squared_error = 0.0\nsamples = 1\nvalue = 0.88", fillcolor="#fae6d8"] ;
755 -> 756 ;
757 [label="squared_error = 0.0\nsamples = 1\nvalue = 0.616", fillcolor="#fae9dc"] ;
755 -> 757 ;
758 [label="squared_error = -0.0\nsamples = 81\nvalue = 0.88", fillcolor="#fae6d8"] ;
752 -> 758 ;
759 [label="level <= 89.5\nsquared_error = 0.043\nsamples = 17\nvalue = 0.829", fillcolor="#fae7d9"] ;
745 -> 759 ;
760 [label="dist_to_exit <= 7.0\nsquared_error = 0.194\nsamples = 2\nvalue = 0.44", fillcolor="#fbebdf"] ;
759 -> 760 ;
761 [label="squared_error = 0.0\nsamples = 1\nvalue = 0.88", fillcolor="#fae6d8"] ;
760 -> 761 ;
762 [label="squared_error = 0.0\nsamples = 1\nvalue = 0.0", fillcolor="#fcefe6"] ;
760 -> 762 ;
763 [label="squared_error = 0.0\nsamples = 15\nvalue = 0.88", fillcolor="#fae6d8"] ;
759 -> 763 ;
764 [label="level <= 1.5\nsquared_error = 0.01\nsamples = 82\nvalue = 0.595", fillcolor="#fae9dd"] ;
740 -> 764 ;
765 [label="squared_error = 0.0\nsamples = 1\nvalue = 0.0", fillcolor="#fcefe6"] ;
764 -> 765 ;
766 [label="level <= 11.5\nsquared_error = 0.006\nsamples = 81\nvalue = 0.603", fillcolor="#fae9dc"] ;
764 -> 766 ;
767 [label="level <= 10.5\nsquared_error = 0.035\nsamples = 9\nvalue = 0.523", fillcolor="#fbeade"] ;
766 -> 767 ;
768 [label="level <= 3.5\nsquared_error = 0.008\nsamples = 8\nvalue = 0.583", fillcolor="#fbe9dd"] ;
767 -> 768 ;
769 [label="level <= 2.5\nsquared_error = 0.017\nsamples = 2\nvalue = 0.484", fillcolor="#fbeade"] ;
768 -> 769 ;
770 [label="squared_error = 0.0\nsamples = 1\nvalue = 0.616", fillcolor="#fae9dc"] ;
769 -> 770 ;
771 [label="squared_error = -0.0\nsamples = 1\nvalue = 0.352", fillcolor="#fbece1"] ;
769 -> 771 ;
772 [label="squared_error = 0.0\nsamples = 6\nvalue = 0.616", fillcolor="#fae9dc"] ;
768 -> 772 ;
773 [label="squared_error = -0.0\nsamples = 1\nvalue = 0.044", fillcolor="#fcefe6"] ;
767 -> 773 ;
774 [label="level <= 18.5\nsquared_error = 0.001\nsamples = 72\nvalue = 0.613", fillcolor="#fae9dc"] ;
766 -> 774 ;
775 [label="level <= 17.5\nsquared_error = 0.009\nsamples = 7\nvalue = 0.578", fillcolor="#fbe9dd"] ;
774 -> 775 ;
776 [label="squared_error = 0.0\nsamples = 6\nvalue = 0.616", fillcolor="#fae9dc"] ;
775 -> 776 ;
777 [label="squared_error = -0.0\nsamples = 1\nvalue = 0.352", fillcolor="#fbece1"] ;
775 -> 777 ;
778 [label="level <= 21.5\nsquared_error = 0.0\nsamples = 65\nvalue = 0.616", fillcolor="#fae9dc"] ;
774 -> 778 ;
779 [label="squared_error = 0.0\nsamples = 1\nvalue = 0.616", fillcolor="#fae9dc"] ;
778 -> 779 ;
780 [label="level <= 41.5\nsquared_error = 0.0\nsamples = 64\nvalue = 0.616", fillcolor="#fae9dc"] ;
778 -> 780 ;
781 [label="squared_error = -0.0\nsamples = 15\nvalue = 0.616", fillcolor="#fae9dc"] ;
780 -> 781 ;
782 [label="level <= 42.5\nsquared_error = 0.0\nsamples = 49\nvalue = 0.616", fillcolor="#fae9dc"] ;
780 -> 782 ;
783 [label="squared_error = 0.0\nsamples = 1\nvalue = 0.616", fillcolor="#fae9dc"] ;
782 -> 783 ;
784 [label="level <= 43.5\nsquared_error = 0.0\nsamples = 48\nvalue = 0.616", fillcolor="#fae9dc"] ;
782 -> 784 ;
785 [label="squared_error = 0.0\nsamples = 1\nvalue = 0.616", fillcolor="#fae9dc"] ;
784 -> 785 ;
786 [label="level <= 44.5\nsquared_error = 0.0\nsamples = 47\nvalue = 0.616", fillcolor="#fae9dc"] ;
784 -> 786 ;
787 [label="squared_error = 0.0\nsamples = 1\nvalue = 0.616", fillcolor="#fae9dc"] ;
786 -> 787 ;
788 [label="squared_error = 0.0\nsamples = 46\nvalue = 0.616", fillcolor="#fae9dc"] ;
786 -> 788 ;
789 [label="dist_to_cashier <= 2.5\nsquared_error = 0.087\nsamples = 468\nvalue = 0.486", fillcolor="#fbeade"] ;
739 -> 789 ;
790 [label="right_product_3_count <= 58.5\nsquared_error = 0.071\nsamples = 243\nvalue = 0.567", fillcolor="#fbe9dd"] ;
789 -> 790 ;
791 [label="right_product_4_count <= 48.0\nsquared_error = 0.027\nsamples = 163\nvalue = 0.723", fillcolor="#fae8da"] ;
790 -> 791 ;
792 [label="level <= 1.5\nsquared_error = 0.011\nsamples = 77\nvalue = 0.865", fillcolor="#fae6d8"] ;
791 -> 792 ;
793 [label="squared_error = 0.0\nsamples = 1\nvalue = 0.0", fillcolor="#fcefe6"] ;
792 -> 793 ;
794 [label="level <= 10.5\nsquared_error = 0.001\nsamples = 76\nvalue = 0.877", fillcolor="#fae6d8"] ;
792 -> 794 ;
795 [label="level <= 9.0\nsquared_error = 0.01\nsamples = 6\nvalue = 0.836", fillcolor="#fae7d9"] ;
794 -> 795 ;
796 [label="squared_error = 0.0\nsamples = 5\nvalue = 0.88", fillcolor="#fae6d8"] ;
795 -> 796 ;
797 [label="squared_error = -0.0\nsamples = 1\nvalue = 0.616", fillcolor="#fae9dc"] ;
795 -> 797 ;
798 [label="squared_error = -0.0\nsamples = 70\nvalue = 0.88", fillcolor="#fae6d8"] ;
794 -> 798 ;
799 [label="level <= 11.5\nsquared_error = 0.008\nsamples = 86\nvalue = 0.596", fillcolor="#fae9dd"] ;
791 -> 799 ;
800 [label="level <= 10.5\nsquared_error = 0.038\nsamples = 11\nvalue = 0.484", fillcolor="#fbeade"] ;
799 -> 800 ;
801 [label="level <= 5.5\nsquared_error = 0.016\nsamples = 10\nvalue = 0.533", fillcolor="#fbeade"] ;
800 -> 801 ;
802 [label="level <= 4.5\nsquared_error = 0.019\nsamples = 5\nvalue = 0.449", fillcolor="#fbebdf"] ;
801 -> 802 ;
803 [label="level <= 3.5\nsquared_error = 0.017\nsamples = 4\nvalue = 0.484", fillcolor="#fbeade"] ;
802 -> 803 ;
804 [label="level <= 1.5\nsquared_error = 0.015\nsamples = 3\nvalue = 0.44", fillcolor="#fbebdf"] ;
803 -> 804 ;
805 [label="squared_error = 0.0\nsamples = 1\nvalue = 0.352", fillcolor="#fbece1"] ;
804 -> 805 ;
806 [label="level <= 2.5\nsquared_error = 0.017\nsamples = 2\nvalue = 0.484", fillcolor="#fbeade"] ;
804 -> 806 ;
807 [label="squared_error = 0.0\nsamples = 1\nvalue = 0.616", fillcolor="#fae9dc"] ;
806 -> 807 ;
808 [label="squared_error = -0.0\nsamples = 1\nvalue = 0.352", fillcolor="#fbece1"] ;
806 -> 808 ;
809 [label="squared_error = -0.0\nsamples = 1\nvalue = 0.616", fillcolor="#fae9dc"] ;
803 -> 809 ;
810 [label="squared_error = -0.0\nsamples = 1\nvalue = 0.308", fillcolor="#fbece1"] ;
802 -> 810 ;
811 [label="squared_error = 0.0\nsamples = 5\nvalue = 0.616", fillcolor="#fae9dc"] ;
801 -> 811 ;
812 [label="squared_error = 0.0\nsamples = 1\nvalue = 0.0", fillcolor="#fcefe6"] ;
800 -> 812 ;
813 [label="level <= 18.5\nsquared_error = 0.001\nsamples = 75\nvalue = 0.613", fillcolor="#fae9dc"] ;
799 -> 813 ;
814 [label="level <= 17.5\nsquared_error = 0.009\nsamples = 7\nvalue = 0.578", fillcolor="#fbe9dd"] ;
813 -> 814 ;
815 [label="squared_error = 0.0\nsamples = 6\nvalue = 0.616", fillcolor="#fae9dc"] ;
814 -> 815 ;
816 [label="squared_error = -0.0\nsamples = 1\nvalue = 0.352", fillcolor="#fbece1"] ;
814 -> 816 ;
817 [label="level <= 20.5\nsquared_error = 0.0\nsamples = 68\nvalue = 0.616", fillcolor="#fae9dc"] ;
813 -> 817 ;
818 [label="squared_error = 0.0\nsamples = 2\nvalue = 0.616", fillcolor="#fae9dc"] ;
817 -> 818 ;
819 [label="level <= 21.5\nsquared_error = 0.0\nsamples = 66\nvalue = 0.616", fillcolor="#fae9dc"] ;
817 -> 819 ;
820 [label="squared_error = 0.0\nsamples = 1\nvalue = 0.616", fillcolor="#fae9dc"] ;
819 -> 820 ;
821 [label="level <= 22.5\nsquared_error = 0.0\nsamples = 65\nvalue = 0.616", fillcolor="#fae9dc"] ;
819 -> 821 ;
822 [label="squared_error = 0.0\nsamples = 1\nvalue = 0.616", fillcolor="#fae9dc"] ;
821 -> 822 ;
823 [label="level <= 44.0\nsquared_error = 0.0\nsamples = 64\nvalue = 0.616", fillcolor="#fae9dc"] ;
821 -> 823 ;
824 [label="squared_error = -0.0\nsamples = 15\nvalue = 0.616", fillcolor="#fae9dc"] ;
823 -> 824 ;
825 [label="level <= 45.5\nsquared_error = 0.0\nsamples = 49\nvalue = 0.616", fillcolor="#fae9dc"] ;
823 -> 825 ;
826 [label="squared_error = 0.0\nsamples = 1\nvalue = 0.616", fillcolor="#fae9dc"] ;
825 -> 826 ;
827 [label="level <= 46.5\nsquared_error = 0.0\nsamples = 48\nvalue = 0.616", fillcolor="#fae9dc"] ;
825 -> 827 ;
828 [label="squared_error = 0.0\nsamples = 1\nvalue = 0.616", fillcolor="#fae9dc"] ;
827 -> 828 ;
829 [label="level <= 47.5\nsquared_error = 0.0\nsamples = 47\nvalue = 0.616", fillcolor="#fae9dc"] ;
827 -> 829 ;
830 [label="squared_error = 0.0\nsamples = 1\nvalue = 0.616", fillcolor="#fae9dc"] ;
829 -> 830 ;
831 [label="squared_error = 0.0\nsamples = 46\nvalue = 0.616", fillcolor="#fae9dc"] ;
829 -> 831 ;
832 [label="level <= 9.5\nsquared_error = 0.01\nsamples = 80\nvalue = 0.25", fillcolor="#fbede2"] ;
790 -> 832 ;
833 [label="level <= 8.5\nsquared_error = 0.085\nsamples = 8\nvalue = 0.154", fillcolor="#fbeee4"] ;
832 -> 833 ;
834 [label="squared_error = 0.0\nsamples = 7\nvalue = 0.264", fillcolor="#fbede2"] ;
833 -> 834 ;
835 [label="squared_error = 0.0\nsamples = 1\nvalue = -0.616", fillcolor="#fdf6f1"] ;
833 -> 835 ;
836 [label="level <= 88.5\nsquared_error = 0.001\nsamples = 72\nvalue = 0.26", fillcolor="#fbede2"] ;
832 -> 836 ;
837 [label="squared_error = -0.0\nsamples = 62\nvalue = 0.264", fillcolor="#fbede2"] ;
836 -> 837 ;
838 [label="level <= 89.5\nsquared_error = 0.006\nsamples = 10\nvalue = 0.238", fillcolor="#fbede2"] ;
836 -> 838 ;
839 [label="squared_error = 0.0\nsamples = 1\nvalue = 0.0", fillcolor="#fcefe6"] ;
838 -> 839 ;
840 [label="squared_error = 0.0\nsamples = 9\nvalue = 0.264", fillcolor="#fbede2"] ;
838 -> 840 ;
841 [label="dist_to_exit <= 7.0\nsquared_error = 0.09\nsamples = 225\nvalue = 0.398", fillcolor="#fbebe0"] ;
789 -> 841 ;
842 [label="level <= 67.5\nsquared_error = 0.006\nsamples = 77\nvalue = -0.011", fillcolor="#fcefe7"] ;
841 -> 842 ;
843 [label="level <= 66.0\nsquared_error = 0.009\nsamples = 49\nvalue = -0.018", fillcolor="#fcf0e7"] ;
842 -> 843 ;
844 [label="level <= 18.5\nsquared_error = 0.001\nsamples = 48\nvalue = -0.006", fillcolor="#fcefe6"] ;
843 -> 844 ;
845 [label="level <= 17.0\nsquared_error = 0.006\nsamples = 10\nvalue = -0.026", fillcolor="#fcf0e7"] ;
844 -> 845 ;
846 [label="squared_error = 0.0\nsamples = 9\nvalue = 0.0", fillcolor="#fcefe6"] ;
845 -> 846 ;
847 [label="squared_error = 0.0\nsamples = 1\nvalue = -0.264", fillcolor="#fcf2eb"] ;
845 -> 847 ;
848 [label="squared_error = 0.0\nsamples = 38\nvalue = 0.0", fillcolor="#fcefe6"] ;
844 -> 848 ;
849 [label="squared_error = 0.0\nsamples = 1\nvalue = -0.616", fillcolor="#fdf6f1"] ;
843 -> 849 ;
850 [label="squared_error = 0.0\nsamples = 28\nvalue = 0.0", fillcolor="#fcefe6"] ;
842 -> 850 ;
851 [label="level <= 1.5\nsquared_error = 0.001\nsamples = 148\nvalue = 0.611", fillcolor="#fae9dc"] ;
841 -> 851 ;
852 [label="dist_to_exit <= 10.5\nsquared_error = 0.017\nsamples = 2\nvalue = 0.484", fillcolor="#fbeade"] ;
851 -> 852 ;
853 [label="squared_error = 0.0\nsamples = 1\nvalue = 0.616", fillcolor="#fae9dc"] ;
852 -> 853 ;
854 [label="squared_error = -0.0\nsamples = 1\nvalue = 0.352", fillcolor="#fbece1"] ;
852 -> 854 ;
855 [label="level <= 11.5\nsquared_error = 0.001\nsamples = 146\nvalue = 0.613", fillcolor="#fae9dc"] ;
851 -> 855 ;
856 [label="level <= 10.5\nsquared_error = 0.005\nsamples = 13\nvalue = 0.596", fillcolor="#fae9dd"] ;
855 -> 856 ;
857 [label="squared_error = 0.0\nsamples = 11\nvalue = 0.616", fillcolor="#fae9dc"] ;
856 -> 857 ;
858 [label="right_product_3_count <= 44.0\nsquared_error = 0.017\nsamples = 2\nvalue = 0.484", fillcolor="#fbeade"] ;
856 -> 858 ;
859 [label="squared_error = 0.0\nsamples = 1\nvalue = 0.352", fillcolor="#fbece1"] ;
858 -> 859 ;
860 [label="squared_error = -0.0\nsamples = 1\nvalue = 0.616", fillcolor="#fae9dc"] ;
858 -> 860 ;
861 [label="level <= 88.5\nsquared_error = 0.001\nsamples = 133\nvalue = 0.614", fillcolor="#fae9dc"] ;
855 -> 861 ;
862 [label="level <= 31.5\nsquared_error = 0.0\nsamples = 118\nvalue = 0.616", fillcolor="#fae9dc"] ;
861 -> 862 ;
863 [label="squared_error = 0.0\nsamples = 31\nvalue = 0.616", fillcolor="#fae9dc"] ;
862 -> 863 ;
864 [label="right_product_2_count <= 20.0\nsquared_error = 0.0\nsamples = 87\nvalue = 0.616", fillcolor="#fae9dc"] ;
862 -> 864 ;
865 [label="squared_error = 0.0\nsamples = 41\nvalue = 0.616", fillcolor="#fae9dc"] ;
864 -> 865 ;
866 [label="level <= 32.5\nsquared_error = 0.0\nsamples = 46\nvalue = 0.616", fillcolor="#fae9dc"] ;
864 -> 866 ;
867 [label="squared_error = 0.0\nsamples = 1\nvalue = 0.616", fillcolor="#fae9dc"] ;
866 -> 867 ;
868 [label="squared_error = 0.0\nsamples = 45\nvalue = 0.616", fillcolor="#fae9dc"] ;
866 -> 868 ;
869 [label="level <= 89.5\nsquared_error = 0.004\nsamples = 15\nvalue = 0.599", fillcolor="#fae9dc"] ;
861 -> 869 ;
870 [label="dist_to_exit <= 10.5\nsquared_error = 0.017\nsamples = 2\nvalue = 0.484", fillcolor="#fbeade"] ;
869 -> 870 ;
871 [label="squared_error = 0.0\nsamples = 1\nvalue = 0.352", fillcolor="#fbece1"] ;
870 -> 871 ;
872 [label="squared_error = -0.0\nsamples = 1\nvalue = 0.616", fillcolor="#fae9dc"] ;
870 -> 872 ;
873 [label="squared_error = 0.0\nsamples = 13\nvalue = 0.616", fillcolor="#fae9dc"] ;
869 -> 873 ;
874 [label="dist_to_cashier <= 2.5\nsquared_error = 0.136\nsamples = 2358\nvalue = 0.319", fillcolor="#fbece1"] ;
738 -> 874 ;
875 [label="tile_right <= 0.5\nsquared_error = 0.112\nsamples = 1561\nvalue = 0.223", fillcolor="#fbede3"] ;
874 -> 875 ;
876 [label="dist_to_cashier <= 1.5\nsquared_error = 0.217\nsamples = 298\nvalue = 0.487", fillcolor="#fbeade"] ;
875 -> 876 ;
877 [label="right_product_2_count <= 3.0\nsquared_error = 0.11\nsamples = 147\nvalue = 0.88", fillcolor="#fae6d8"] ;
876 -> 877 ;
878 [label="level <= 6.0\nsquared_error = 0.011\nsamples = 78\nvalue = 0.594", fillcolor="#fae9dd"] ;
877 -> 878 ;
879 [label="level <= 1.5\nsquared_error = 0.067\nsamples = 4\nvalue = 0.242", fillcolor="#fbede2"] ;
878 -> 879 ;
880 [label="squared_error = 0.0\nsamples = 1\nvalue = 0.0", fillcolor="#fcefe6"] ;
879 -> 880 ;
881 [label="level <= 4.5\nsquared_error = 0.064\nsamples = 3\nvalue = 0.323", fillcolor="#fbece1"] ;
879 -> 881 ;
882 [label="level <= 3.0\nsquared_error = 0.017\nsamples = 2\nvalue = 0.484", fillcolor="#fbeade"] ;
881 -> 882 ;
883 [label="squared_error = 0.0\nsamples = 1\nvalue = 0.616", fillcolor="#fae9dc"] ;
882 -> 883 ;
884 [label="squared_error = -0.0\nsamples = 1\nvalue = 0.352", fillcolor="#fbece1"] ;
882 -> 884 ;
885 [label="squared_error = 0.0\nsamples = 1\nvalue = 0.0", fillcolor="#fcefe6"] ;
881 -> 885 ;
886 [label="level <= 43.5\nsquared_error = 0.001\nsamples = 74\nvalue = 0.613", fillcolor="#fae9dc"] ;
878 -> 886 ;
887 [label="level <= 42.0\nsquared_error = 0.002\nsamples = 31\nvalue = 0.608", fillcolor="#fae9dc"] ;
886 -> 887 ;
888 [label="squared_error = 0.0\nsamples = 30\nvalue = 0.616", fillcolor="#fae9dc"] ;
887 -> 888 ;
889 [label="squared_error = -0.0\nsamples = 1\nvalue = 0.352", fillcolor="#fbece1"] ;
887 -> 889 ;
890 [label="level <= 61.5\nsquared_error = 0.0\nsamples = 43\nvalue = 0.616", fillcolor="#fae9dc"] ;
886 -> 890 ;
891 [label="squared_error = 0.0\nsamples = 13\nvalue = 0.616", fillcolor="#fae9dc"] ;
890 -> 891 ;
892 [label="level <= 64.5\nsquared_error = 0.0\nsamples = 30\nvalue = 0.616", fillcolor="#fae9dc"] ;
890 -> 892 ;
893 [label="squared_error = -0.0\nsamples = 3\nvalue = 0.616", fillcolor="#fae9dc"] ;
892 -> 893 ;
894 [label="squared_error = 0.0\nsamples = 27\nvalue = 0.616", fillcolor="#fae9dc"] ;
892 -> 894 ;
895 [label="level <= 5.5\nsquared_error = 0.024\nsamples = 69\nvalue = 1.203", fillcolor="#f9e3d3"] ;
877 -> 895 ;
896 [label="level <= 4.5\nsquared_error = 0.257\nsamples = 4\nvalue = 0.858", fillcolor="#fae6d8"] ;
895 -> 896 ;
897 [label="level <= 2.0\nsquared_error = 0.015\nsamples = 3\nvalue = 1.144", fillcolor="#f9e3d4"] ;
896 -> 897 ;
898 [label="squared_error = 0.0\nsamples = 1\nvalue = 0.968", fillcolor="#fae5d6"] ;
897 -> 898 ;
899 [label="squared_error = 0.0\nsamples = 2\nvalue = 1.232", fillcolor="#f9e2d2"] ;
897 -> 899 ;
900 [label="squared_error = 0.0\nsamples = 1\nvalue = 0.0", fillcolor="#fcefe6"] ;
896 -> 900 ;
901 [label="level <= 31.0\nsquared_error = 0.002\nsamples = 65\nvalue = 1.224", fillcolor="#f9e2d2"] ;
895 -> 901 ;
902 [label="level <= 29.5\nsquared_error = 0.007\nsamples = 18\nvalue = 1.203", fillcolor="#f9e3d3"] ;
901 -> 902 ;
903 [label="level <= 23.5\nsquared_error = 0.004\nsamples = 17\nvalue = 1.217", fillcolor="#f9e3d2"] ;
902 -> 903 ;
904 [label="squared_error = 0.0\nsamples = 13\nvalue = 1.232", fillcolor="#f9e2d2"] ;
903 -> 904 ;
905 [label="level <= 25.5\nsquared_error = 0.013\nsamples = 4\nvalue = 1.166", fillcolor="#f9e3d3"] ;
903 -> 905 ;
906 [label="squared_error = 0.0\nsamples = 1\nvalue = 0.968", fillcolor="#fae5d6"] ;
905 -> 906 ;
907 [label="squared_error = -0.0\nsamples = 3\nvalue = 1.232", fillcolor="#f9e2d2"] ;
905 -> 907 ;
908 [label="squared_error = -0.0\nsamples = 1\nvalue = 0.968", fillcolor="#fae5d6"] ;
902 -> 908 ;
909 [label="level <= 32.5\nsquared_error = 0.0\nsamples = 47\nvalue = 1.232", fillcolor="#f9e2d2"] ;
901 -> 909 ;
910 [label="squared_error = 0.0\nsamples = 1\nvalue = 1.232", fillcolor="#f9e2d2"] ;
909 -> 910 ;
911 [label="level <= 33.5\nsquared_error = 0.0\nsamples = 46\nvalue = 1.232", fillcolor="#f9e2d2"] ;
909 -> 911 ;
912 [label="squared_error = 0.0\nsamples = 1\nvalue = 1.232", fillcolor="#f9e2d2"] ;
911 -> 912 ;
913 [label="level <= 34.5\nsquared_error = 0.0\nsamples = 45\nvalue = 1.232", fillcolor="#f9e2d2"] ;
911 -> 913 ;
914 [label="squared_error = 0.0\nsamples = 1\nvalue = 1.232", fillcolor="#f9e2d2"] ;
913 -> 914 ;
915 [label="level <= 36.0\nsquared_error = 0.0\nsamples = 44\nvalue = 1.232", fillcolor="#f9e2d2"] ;
913 -> 915 ;
916 [label="squared_error = 0.0\nsamples = 1\nvalue = 1.232", fillcolor="#f9e2d2"] ;
915 -> 916 ;
917 [label="level <= 56.5\nsquared_error = 0.0\nsamples = 43\nvalue = 1.232", fillcolor="#f9e2d2"] ;
915 -> 917 ;
918 [label="squared_error = 0.0\nsamples = 13\nvalue = 1.232", fillcolor="#f9e2d2"] ;
917 -> 918 ;
919 [label="level <= 61.0\nsquared_error = 0.0\nsamples = 30\nvalue = 1.232", fillcolor="#f9e2d2"] ;
917 -> 919 ;
920 [label="squared_error = -0.0\nsamples = 3\nvalue = 1.232", fillcolor="#f9e2d2"] ;
919 -> 920 ;
921 [label="level <= 63.5\nsquared_error = 0.0\nsamples = 27\nvalue = 1.232", fillcolor="#f9e2d2"] ;
919 -> 921 ;
922 [label="squared_error = 0.0\nsamples = 1\nvalue = 1.232", fillcolor="#f9e2d2"] ;
921 -> 922 ;
923 [label="squared_error = 0.0\nsamples = 26\nvalue = 1.232", fillcolor="#f9e2d2"] ;
921 -> 923 ;
924 [label="left_product_3_count <= 60.0\nsquared_error = 0.024\nsamples = 151\nvalue = 0.104", fillcolor="#fceee5"] ;
876 -> 924 ;
925 [label="level <= 43.5\nsquared_error = 0.007\nsamples = 69\nvalue = 0.247", fillcolor="#fbede2"] ;
924 -> 925 ;
926 [label="level <= 42.5\nsquared_error = 0.013\nsamples = 36\nvalue = 0.232", fillcolor="#fbede3"] ;
925 -> 926 ;
927 [label="level <= 32.5\nsquared_error = 0.012\nsamples = 35\nvalue = 0.239", fillcolor="#fbede2"] ;
926 -> 927 ;
